
\data\
ngram 1=48229
ngram 2=61707

\1-grams:
-4.284627	'	-0.1244661
-5.413194	'd
-5.413194	'flight
-5.413194	'll
-5.413194	're
-4.860117	's	-0.1277796
-5.413194	've
-3.272183	,	-0.1722402
-2.992784	--	-0.2041315
-2.879998	.	-0.7212709
-4.173925	0	-0.1754739
-5.413194	0.50
-5.413194	0.71
-5.413194	035
-5.413194	046
-5.183101	05	-0.133545
-5.413194	060
-5.413194	0600
-5.413194	08
-5.413194	0930
-3.433552	1	-0.1532286
-5.413194	1,490
-5.413194	1,700
-5.413194	1,750
-5.413194	1,753,000
-5.413194	1,758.3
-5.413194	1,900
-5.413194	1,905
-5.413194	1-1/8
-5.413194	1-10
-5.413194	1-7/8
-4.284627	1.0	-0.1562859
-5.413194	1.09
-5.183101	1.1	-0.1229043
-5.413194	1.11
-5.413194	1.16
-5.413194	1.2
-5.413194	1.20
-5.413194	1.23
-5.413194	1.26
-5.413194	1.29
-5.413194	1.30
-5.413194	1.33
-4.860117	1.4	-0.2376117
-5.413194	1.45
-5.183101	1.5	-0.1912439
-5.413194	1.53
-5.413194	1.55
-5.413194	1.575
-5.413194	1.67
-5.183101	1.7
-5.413194	1.72
-5.413194	1.75
-5.413194	1.76
-5.413194	1.77
-5.183101	1.8	-0.1241703
-5.413194	1.9
-3.632961	10	-0.1508273
-5.413194	10-mark
-5.413194	10-month
-5.413194	10-year
-5.413194	10.0
-5.183101	10.3	-0.1336694
-5.413194	10.4
-5.413194	10.8
-5.413194	10.9
-4.662069	100	-0.1260874
-5.413194	100,000
-4.860117	1000	-0.1334336
-5.413194	1001
-5.413194	101
-5.413194	101b
-5.413194	102
-5.413194	102,000
-5.413194	102,350
-5.413194	102.2
-5.413194	1020
-5.413194	1024
-5.183101	103	-0.1333747
-5.413194	104
-5.413194	104-mln-
-5.413194	1040
-5.413194	1040A
-5.413194	1044
-5.413194	105
-5.413194	106
-5.413194	1065
-5.413194	1066
-5.413194	1068
-5.413194	108
-5.413194	109.3
-4.173925	10th	-0.1576733
-4.284627	11	-0.1236889
-5.413194	11-member
-5.413194	11.0
-5.413194	11.1
-5.413194	110
-5.413194	110-year-old
-5.413194	1105
-5.413194	111
-5.413194	113
-5.413194	113,432
-5.413194	114
-5.413194	114,000
-5.413194	115
-5.413194	1159
-5.413194	116
-5.413194	1162
-5.413194	117
-5.413194	117,000
-5.413194	118,350
-5.413194	1184
-4.860117	11th	-0.1241004
-4.085787	12	-0.1686678
-5.413194	12,500-14,500
-5.413194	12.2
-5.413194	12.4
-5.413194	12.5
-5.413194	12.6
-5.413194	12.75
-5.413194	12.8
-5.413194	120
-5.413194	120-mln-
-5.413194	1200
-5.413194	121
-5.413194	1213
-5.413194	1215
-5.413194	122
-5.413194	1223
-5.413194	123
-5.413194	1231
-5.413194	124
-5.413194	125
-4.860117	125th	-0.1336628
-5.413194	126
-5.183101	127	-0.133545
-5.413194	128
-5.413194	1290
-5.413194	1298
-5.413194	12a
-5.413194	12th
-5.183101	13
-5.413194	13-member
-5.413194	13.2
-5.413194	13.35
-5.413194	13.8
-5.183101	130
-5.413194	130,000
-5.413194	130.1
-5.183101	1300	-0.133689
-5.413194	1307
-5.413194	1310
-5.413194	1311
-5.413194	133
-5.413194	1330
-5.413194	135
-5.413194	137
-5.413194	137,600
-5.183101	138	-0.1250528
-5.413194	139
-5.183101	13th
-5.183101	14	-0.1280878
-5.413194	14,937
-5.413194	14.9
-5.413194	140
-5.413194	1409
-5.413194	141
-5.413194	142
-5.413194	143
-5.413194	144
-5.413194	145
-5.413194	145.25
-5.413194	145.33
-5.413194	145.60/70
-5.413194	1450
-5.413194	1453
-5.413194	1479
-5.413194	149
-5.413194	1492
-4.433573	14th	-0.1335552
-4.012553	15	-0.1495766
-5.413194	15-25
-5.413194	15.02
-5.413194	15.2
-5.413194	15.5
-5.413194	15.6
-5.413194	15.7
-5.413194	150
-5.413194	150,000
-5.413194	1500
-5.413194	151
-5.413194	1514
-5.413194	1515
-5.413194	1516
-5.413194	153
-5.413194	153.9
-5.413194	154
-5.413194	1540
-5.413194	1543
-5.413194	155
-5.413194	1550
-5.413194	1558
-5.413194	156
-5.413194	156.28
-5.413194	1565
-5.413194	157
-5.413194	1577
-5.413194	1579
-5.413194	158
-5.413194	1581
-5.413194	1582
-5.413194	1589
-5.413194	1590
-5.413194	1592
-5.413194	1593
-5.413194	1595
-5.413194	1596
-5.413194	1597
-5.413194	1598
-5.413194	1599
-5.183101	15th	-0.1336694
-4.085787	16	-0.1326482
-5.413194	16,000
-5.413194	16,500
-5.413194	16-27
-5.413194	16.1
-5.413194	16.50
-5.413194	160
-5.413194	1600
-5.413194	1601
-5.413194	1602
-5.413194	1605
-5.413194	1607
-5.413194	1608
-5.413194	1609
-5.413194	161
-5.413194	1610
-5.413194	1611
-5.413194	1613
-5.413194	1615
-5.413194	162
-5.413194	1622
-5.413194	1624
-5.413194	1625
-5.413194	1626
-5.413194	1628
-5.413194	1629
-5.413194	1630
-5.413194	1631
-5.413194	1632
-5.413194	1633
-5.413194	1637
-5.413194	1638
-5.413194	1639
-5.413194	164
-5.413194	1640
-5.413194	1642
-5.413194	1643
-5.413194	1644
-5.413194	165
-5.413194	165-185
-5.413194	1655
-5.413194	1657
-5.413194	166
-5.413194	1665
-5.413194	1671
-5.413194	1678
-5.413194	168
-5.413194	1680
-5.413194	1687
-5.413194	1688
-5.183101	169	-0.1335319
-5.413194	169.8
-5.413194	1690
-5.413194	1692
-5.413194	1693
-5.413194	16th
-4.662069	17	-0.1334343
-5.413194	17.09
-5.413194	17.25
-5.183101	170
-5.413194	1700
-5.413194	1707
-5.413194	1709
-5.413194	171
-5.413194	1714
-5.413194	172
-5.413194	1720
-5.413194	1721
-5.413194	1724
-5.413194	1727
-5.413194	1728
-5.413194	172nd
-5.413194	173
-5.413194	1730
-5.413194	1731
-5.413194	1732
-5.413194	1733
-5.413194	174
-5.413194	1745
-5.413194	1746
-5.413194	1747
-5.413194	1748
-5.413194	175
-5.413194	1750
-5.413194	1751
-5.413194	1755
-5.413194	1764
-5.413194	1769
-5.413194	1771
-5.413194	1773
-5.413194	1774
-5.413194	1776
-5.413194	1777
-5.413194	1778
-5.413194	178
-5.413194	1780
-5.413194	1781
-5.413194	1782
-5.413194	1783
-5.413194	1785
-5.413194	1786
-5.413194	1787
-5.413194	1788
-5.413194	1789
-5.413194	1791
-5.413194	1792
-5.413194	1793
-5.413194	1797
-5.413194	1799
-5.413194	17e
-4.662069	17th
-5.183101	18	-0.1334336
-5.413194	18,500
-5.413194	18.24
-5.413194	18.2743
-5.413194	18.5571
-5.413194	18.8
-5.413194	18.9
-5.413194	180
-5.413194	1800
-5.413194	1801
-5.413194	1802
-5.413194	1803
-5.413194	1804
-5.413194	1806
-5.413194	1810
-5.413194	1811
-5.413194	1812
-5.413194	1813
-5.413194	1814
-5.413194	1815
-5.413194	1816
-5.413194	1817
-5.413194	1818
-5.413194	1819
-5.413194	182
-5.413194	1820
-5.413194	1821
-5.413194	1822
-5.413194	1823
-5.413194	1825
-5.413194	1827
-5.413194	1830
-5.413194	1831
-5.413194	1832
-5.413194	1833
-5.413194	1834
-5.413194	1835
-5.413194	1837
-5.413194	1838
-5.413194	184.3
-5.413194	1840
-5.413194	1841
-5.413194	1843
-5.413194	1844
-5.413194	1845
-5.413194	1846
-5.413194	1847
-5.413194	1848
-5.413194	1849
-5.413194	185
-5.413194	1850
-5.413194	1851
-5.413194	1852
-5.413194	1853
-5.413194	1854
-5.413194	1855
-5.413194	1857
-5.413194	1858
-5.413194	1859
-5.413194	185th
-5.413194	186
-5.413194	1860
-5.413194	1861
-5.413194	1862
-5.413194	1863
-5.413194	1864
-5.413194	1865
-5.413194	1866
-5.413194	1867
-5.413194	1868
-5.413194	1869
-5.413194	187
-5.413194	1870
-5.413194	1871
-5.413194	1872
-5.413194	1874
-5.413194	1875
-5.413194	1876
-5.413194	1878
-5.413194	1879
-5.413194	188
-5.413194	188.8
-5.413194	1880s
-5.413194	1881
-5.413194	1882
-5.413194	1883
-5.413194	1884
-5.413194	1885
-5.413194	1886
-5.413194	1887
-5.413194	1888
-5.413194	1889
-5.413194	189
-5.413194	1890
-5.413194	1890s
-5.413194	1891
-5.413194	1892
-5.413194	1893
-5.413194	1895
-5.413194	1896
-5.413194	1897
-5.413194	1898
-5.413194	1899
-5.413194	18e
-5.413194	18th
-4.860117	19	-0.133162
-5.413194	19.4p
-5.413194	1900
-5.413194	1901
-5.413194	1902
-5.183101	1903	-0.1305546
-5.413194	1904
-5.413194	1905
-5.413194	1906
-5.413194	1907
-5.413194	1908
-5.413194	1909
-5.413194	1910
-5.413194	1911
-5.413194	1912
-5.413194	1913
-5.413194	1914
-5.413194	1915
-5.413194	1916
-5.413194	1917
-5.413194	1918
-5.413194	1919
-5.183101	192	-0.1336628
-5.413194	1920
-5.413194	1920s
-5.413194	1921
-5.413194	1922
-5.413194	1923
-5.413194	1924
-5.413194	1925
-5.413194	1926
-5.413194	1927
-5.413194	1928
-5.413194	1929
-5.413194	1930
-5.413194	1930s
-5.413194	1931
-5.413194	1932
-5.413194	1933
-5.413194	1934
-5.413194	1935
-5.413194	1936
-5.413194	1937
-5.413194	1938
-5.413194	1939
-5.413194	194
-5.413194	1940
-5.413194	1940s
-5.413194	1941
-5.413194	1942
-5.413194	1943
-5.413194	1944
-5.413194	1945
-5.413194	1946
-5.413194	1947
-5.413194	1948
-5.413194	1949
-5.413194	195
-5.413194	1950
-5.413194	1950s
-5.413194	1951
-5.413194	1952
-5.413194	1953
-5.413194	1954
-5.413194	1955
-5.413194	1956
-5.413194	1957
-5.413194	1957b
-5.413194	1958
-5.413194	1959
-5.413194	196
-5.413194	1960
-5.413194	1960s
-5.413194	1961
-5.413194	1962
-5.413194	1963
-5.413194	1964
-5.413194	1965
-5.413194	1966
-5.413194	1967
-5.413194	1970
-5.413194	1970s
-5.413194	1971
-5.413194	1972
-5.413194	1976
-5.413194	198
-5.413194	1980
-5.413194	1980s
-5.413194	1981
-5.183101	1982	-0.1259802
-5.413194	1983
-5.413194	1984
-5.413194	1985
-5.413194	1985/86
-5.413194	1986
-5.413194	1986/87
-5.413194	1987
-5.413194	1987/88
-5.413194	1988
-5.413194	1989
-5.413194	199
-4.860117	1990
-5.183101	1991
-5.413194	1993
-5.183101	1995	-0.131398
-5.183101	1996	-0.1332764
-4.860117	19th	-0.2486411
-5.413194	1M
-5.413194	1a
-3.248344	2	-0.1414806
-5.413194	2,000
-5.413194	2,051,000
-5.413194	2,132,000
-5.413194	2,194,970
-5.413194	2,500
-5.413194	2.0-2.5
-5.413194	2.00
-5.413194	2.01
-5.413194	2.04
-5.183101	2.1	-0.1336825
-5.413194	2.18
-5.413194	2.2
-5.413194	2.2-to-1
-5.413194	2.25
-5.413194	2.3
-5.183101	2.4	-0.1241703
-5.413194	2.5
-5.413194	2.5-to-1
-5.413194	2.50
-5.413194	2.79
-5.413194	2.80
-5.413194	2.9
-5.413194	2.99
-3.84656	20	-0.1321404
-5.413194	20,000
-4.860117	20-30	-0.1295379
-5.413194	20.2315
-5.413194	20.3
-5.413194	20.3489
-5.413194	20.6
-5.413194	20.9
-5.183101	200	-0.1260935
-5.413194	200,000
-4.662069	2000	-0.1777969
-5.413194	201p
-5.413194	202
-5.413194	203
-5.413194	2048
-5.413194	2051
-5.413194	206
-5.413194	206p
-5.183101	20th	-0.1325848
-5.183101	21
-5.413194	21.7
-5.413194	21.9
-5.413194	210
-5.413194	2100
-5.413194	211
-5.413194	2118
-5.413194	213
-5.413194	2130
-5.413194	214
-5.413194	215
-5.413194	216
-5.413194	219
-5.183101	21st
-5.183101	22	-0.1337022
-5.413194	22.1
-5.413194	22.2
-5.413194	220
-5.413194	2200
-5.413194	22111
-5.413194	2230
-5.413194	226.4
-5.413194	2269
-5.413194	2274
-5.413194	228
-5.413194	229
-5.413194	22nd
-4.662069	23	-0.1094522
-5.413194	23.4
-5.413194	23.7
-5.413194	23.8
-5.413194	23.9
-5.413194	230
-5.413194	233.9
-5.413194	235
-5.413194	236
-5.413194	238.0
-5.413194	239
-5.413194	23A
-5.413194	23d
-5.413194	23rd
-4.662069	24	-0.2485656
-5.413194	24.7
-5.413194	24.8
-5.413194	240
-5.413194	2433
-5.413194	2454
-5.413194	247
-5.413194	24th
-3.949905	25	-0.171894
-5.413194	25.5
-5.413194	25.7
-5.413194	25.8
-5.183101	250	-0.1336628
-5.183101	2500	-0.1241703
-5.413194	253
-5.413194	254
-5.413194	2544
-5.183101	255	-0.131398
-4.662069	256	-0.2484448
-5.413194	256,100
-5.413194	256,500
-5.413194	258
-5.413194	259,000
-5.413194	259,400
-5.413194	25th
-4.433573	26	-0.1246793
-5.413194	26,300
-5.413194	26.0
-5.413194	26.5
-5.413194	260
-5.413194	261
-5.413194	264,000
-5.413194	265
-5.413194	2688
-5.413194	269
-5.413194	26th
-5.413194	27
-5.413194	270
-5.413194	2705
-5.413194	271
-5.413194	272
-5.413194	273
-5.413194	2731
-5.413194	275
-5.413194	278
-5.413194	27th
-4.662069	28
-5.413194	28,763
-5.413194	280
-5.413194	2809
-5.413194	281
-5.413194	2825
-5.413194	283
-5.413194	285
-5.413194	286
-5.413194	28th
-5.413194	29
-5.413194	29.3
-5.413194	29.9
-5.413194	2991
-5.413194	29th
-5.413194	2a
-5.413194	2d
-4.284627	2nd	-0.2710222
-3.451692	3	-0.1782082
-5.413194	3,039,000
-5.413194	3,081.0
-5.413194	3,150,000
-5.413194	3,300,000
-5.413194	3.10
-5.413194	3.14
-5.183101	3.2	-0.1336825
-5.413194	3.20
-5.183101	3.3	-0.1336105
-5.413194	3.34
-5.413194	3.5
-5.413194	3.50
-5.413194	3.55
-5.413194	3.58
-5.413194	3.6
-5.413194	3.65
-5.413194	3.7
-5.413194	3.78
-5.413194	3.8
-5.413194	3.85
-3.949905	30	-0.2255799
-5.413194	30.7
-4.284627	300	-0.1336308
-5.413194	3000
-5.413194	300th
-4.860117	302	-0.1336628
-5.413194	303.5
-5.413194	307
-5.413194	30th
-4.860117	31	-0.1335253
-5.413194	31.7
-5.413194	312
-5.413194	314
-5.413194	31730
-5.413194	3181
-5.413194	31978
-5.183101	31st	-0.1336432
-4.433573	32	-0.1334212
-5.413194	32.4
-5.413194	320
-5.413194	320TR
-5.413194	3211
-5.413194	3247
-5.413194	325
-5.413194	327
-5.413194	328
-5.413194	33
-5.413194	330
-5.413194	3300
-5.413194	332
-5.413194	334
-5.413194	33d
-4.860117	34	-0.1336694
-5.413194	34,500
-5.413194	34.2
-5.413194	340TR
-5.413194	34220
-5.413194	343
-5.413194	346
-5.413194	348
-4.433573	35	-0.1981654
-5.183101	350	-0.1337022
-5.413194	3500
-5.413194	3505o
-5.413194	350th
-5.413194	353
-5.413194	354
-5.413194	355
-5.413194	357
-4.433573	36	-0.1283802
-5.413194	36.3
-5.413194	360
-5.413194	361
-5.413194	362
-5.413194	3646
-5.413194	365
-5.413194	367
-5.413194	369
-5.413194	36th
-4.284627	37	-0.1273251
-5.413194	37,000
-5.413194	37,800
-5.413194	37.6
-5.413194	371
-5.413194	371.1
-5.413194	372
-5.413194	375
-5.413194	376
-5.413194	37th
-5.183101	38	-0.1336694
-5.413194	38.1
-5.413194	38.5
-5.413194	38.6
-5.413194	381
-5.413194	385
-5.413194	386
-5.413194	387
-5.413194	389
-4.860117	39	-0.1336991
-5.413194	39-3/4
-5.413194	390
-5.413194	391
-5.413194	392
-5.413194	394
-5.413194	395
-5.413194	3MM
-4.860117	3rd	-0.1235512
-3.662033	4	-0.1677289
-5.413194	4,000
-5.413194	4,000-strong
-5.413194	4,656,000
-5.413194	4,776
-5.413194	4,790
-5.413194	4,842
-5.413194	4-7/8
-5.183101	4.0
-5.413194	4.1
-5.413194	4.2
-5.413194	4.3
-5.413194	4.4
-5.413194	4.44
-5.413194	4.5
-5.413194	4.65
-5.413194	4.79
-5.413194	4.8
-5.413194	4.9
-4.085787	40	-0.1197862
-4.860117	400	-0.1334045
-5.413194	401
-5.413194	402
-5.413194	402.8
-5.413194	407
-5.183101	41
-5.413194	41.5
-5.413194	410
-5.413194	412
-5.413194	415
-5.183101	42
-5.413194	42.1
-5.413194	42.7
-5.413194	42.9
-5.183101	420
-5.413194	42d
-4.662069	43	-0.1332145
-5.413194	43.1
-5.413194	43.9
-5.413194	431
-5.413194	434
-5.413194	436,500
-5.183101	44	-0.1294556
-5.413194	44-7/8
-5.413194	44.5
-5.413194	442
-5.413194	443
-5.413194	447
-4.433573	45	-0.1240535
-5.413194	45.4
-5.413194	450
-5.183101	451	-0.1250528
-5.413194	452
-4.433573	46	-0.1335712
-5.413194	46.40
-5.413194	46.40/46.50
-5.413194	46.496
-5.413194	46.50
-5.413194	46.8
-5.413194	46.864
-5.413194	462
-5.413194	468,500
-5.413194	469
-5.413194	46th
-4.662069	47	-0.2019363
-5.413194	47,000
-5.413194	470
-5.413194	470,700
-5.413194	477
-4.662069	48
-5.413194	48.8
-5.413194	480
-5.413194	481p
-5.183101	49	-0.1335908
-5.413194	49.9
-5.413194	490,000
-5.413194	490.4
-5.413194	4911
-5.413194	492
-5.413194	495
-5.413194	499.4
-5.413194	49ers
-5.413194	49th
-5.183101	4th	-0.1280878
-3.532937	5	-0.1462989
-5.413194	5,000
-5.413194	5,000-7,000
-5.413194	5,769,000
-5.413194	5,800
-5.413194	5.1
-5.413194	5.15-5.35
-5.413194	5.5
-5.413194	5.6
-5.413194	5/8
-3.895165	50	-0.131746
-5.413194	50,000
-5.413194	50-50
-4.860117	500	-0.2486114
-5.413194	500,000
-5.413194	5000
-5.413194	5031
-5.413194	504,000
-5.413194	505
-5.413194	505,000
-5.413194	50th
-5.183101	51
-5.413194	51.2
-5.183101	510
-5.413194	511
-5.413194	512
-5.413194	514
-5.413194	514C
-5.413194	5155
-5.413194	51st
-4.860117	52
-5.413194	52,000
-5.413194	52-7/8
-5.413194	520
-5.413194	525
-5.413194	525.9
-5.413194	526
-5.413194	52nd
-4.860117	53	-0.1334336
-5.413194	53.4
-5.413194	530,500
-5.413194	532
-5.183101	54
-5.413194	540
-5.413194	541
-5.413194	543
-5.413194	544,000
-5.183101	54th	-0.1241703
-4.860117	55
-5.413194	55.0
-5.413194	550
-5.413194	553
-5.413194	556,000
-5.183101	56	-0.131398
-5.413194	56,250
-5.413194	56.6
-5.413194	5612
-5.413194	562
-5.413194	565
-5.413194	566
-5.413194	56A
-4.860117	57	-0.1334336
-5.413194	57.5
-5.413194	570
-5.413194	573
-5.413194	5777
-5.413194	579,000
-4.860117	58	-0.133395
-5.413194	58.1
-5.413194	58.7
-5.413194	583
-5.413194	5835
-5.413194	5847
-5.413194	589
-5.183101	58th
-5.183101	59	-0.1335712
-5.413194	59.3
-5.413194	5p
-4.662069	5th	-0.2391123
-3.555867	6	-0.1624496
-5.413194	6,500-8,500
-5.413194	6-1/2-year-old
-5.413194	6-3/8
-5.413194	6.10
-5.413194	6.17
-5.413194	6.3
-5.413194	6.5
-5.413194	6.7
-5.413194	6.8
-5.413194	6.87
-5.413194	6.9
-4.433573	60	-0.1249964
-5.413194	60,000
-5.413194	60.6
-5.183101	600	-0.1335319
-5.413194	6000
-5.413194	601
-5.413194	603
-5.413194	605
-5.413194	606
-5.413194	607
-5.413194	609
-5.183101	61
-5.413194	6124
-5.413194	613
-5.413194	61st
-5.183101	62
-5.413194	620.9
-5.413194	63
-5.413194	633
-5.413194	635
-5.413194	637
-5.413194	63d
-5.183101	64	-0.1250528
-5.413194	642
-5.413194	643
-5.413194	646
-4.860117	65	-0.1192541
-5.413194	65.1
-5.413194	650
-5.413194	66
-5.413194	66th
-5.413194	67
-5.413194	67-1/8
-5.413194	675
-5.413194	676
-5.413194	677
-5.183101	68
-5.413194	684
-5.413194	69
-5.413194	69.65
-5.413194	690
-5.413194	692,200
-5.413194	6934
-5.413194	694
-5.413194	695
-5.413194	6a
-4.433573	6th	-0.1972694
-3.726759	7	-0.1489022
-5.413194	7,000-9,000
-5.413194	7,500-9,500
-4.860117	7.1	-0.1241703
-5.413194	7.2
-5.413194	7.21
-5.183101	7.3	-0.1241703
-5.413194	7.4
-5.413194	7.5
-5.413194	7.520
-5.413194	7.6
-5.413194	7.7
-5.413194	7.8
-5.413194	7.912
-4.860117	70	-0.131398
-5.413194	70-3/4
-5.413194	700
-5.413194	701
-5.413194	701st
-5.413194	7026
-5.413194	7034
-5.413194	704
-5.413194	707
-5.413194	7070
-5.413194	7074
-5.413194	70th
-5.413194	71
-5.413194	710
-5.413194	72
-5.413194	72.6
-5.413194	725,000
-5.413194	7287
-5.183101	72nd	-0.1250528
-5.413194	73
-5.413194	734
-5.413194	736,000
-5.413194	74
-5.413194	741
-5.413194	742
-5.413194	742C
-5.183101	75	-0.1260935
-5.413194	75.9
-5.413194	750
-5.413194	750,000
-5.413194	7599
-5.413194	75th
-5.413194	76
-5.413194	760
-5.413194	762
-5.413194	764
-5.413194	767
-5.413194	77
-5.413194	770
-5.413194	78
-5.413194	785,000
-5.183101	78th	-0.1337022
-5.413194	790
-5.413194	798
-5.413194	7A
-4.662069	7th	-0.1972962
-3.895165	8	-0.1840276
-5.413194	8,000-10,000
-5.413194	8,635,000
-5.183101	8.1	-0.1295379
-5.413194	8.2
-5.413194	8.3
-5.413194	8.5
-5.413194	8.67
-5.413194	80
-5.183101	800	-0.1336956
-5.413194	800,000
-5.413194	80th
-5.413194	81
-5.413194	81.2
-5.413194	810
-5.413194	815
-5.413194	817
-5.183101	82	-0.1322068
-5.413194	823
-5.413194	828
-5.183101	83
-5.413194	83rd
-5.183101	85	-0.1250528
-5.413194	86
-5.413194	863,000
-5.413194	869
-5.413194	87
-5.413194	871
-5.413194	872,000
-5.413194	87th
-5.183101	88	-0.1335581
-5.413194	88,946
-5.413194	88.4
-5.413194	885
-5.413194	8861
-5.413194	890
-5.413194	892
-5.413194	896,000
-5.183101	899	-0.1241703
-4.284627	8th	-0.1972962
-4.085787	9	-0.1820917
-5.413194	9,595
-5.413194	9-11/16
-5.413194	9-13/16
-5.413194	9-3/4
-5.413194	9-7/8
-5.413194	9.34
-5.413194	9.5
-5.413194	9.6
-5.413194	9.8
-5.413194	9.9
-4.662069	90	-0.1250098
-5.413194	90,000
-5.413194	90-day
-5.413194	90-kg
-5.413194	900
-5.183101	91
-5.413194	910
-5.413194	915,000
-5.413194	92
-5.413194	920
-5.413194	920,000
-5.413194	9230
-5.413194	926.5
-4.860117	93	-0.1264272
-5.413194	9329
-5.413194	94
-5.413194	940Y
-5.413194	944
-5.413194	948,000
-5.413194	949
-4.662069	95	-0.3263086
-5.413194	95.9
-5.413194	950
-5.413194	953
-5.413194	954
-4.433573	96	-0.1305847
-5.413194	963
-4.860117	97	-0.1235579
-5.413194	976.38
-4.433573	98	-0.1150408
-5.413194	989
-4.860117	99	-0.1241703
-5.413194	99.9
-5.413194	9N
-5.413194	9a
-5.413194	9b
-5.413194	9e
-5.413194	9th
-1.663233	</s>
-99	<s>	-0.6248507
-2.938385	?	-0.6581226
-3.895165	A	-0.411797
-5.413194	A-T-E
-5.413194	A135
-5.413194	A5
-5.183101	AA	-0.1288962
-5.183101	AAA	-0.1336039
-5.413194	AB
-5.413194	ABC
-5.413194	ABO
-5.183101	ACS	-0.127756
-5.413194	ACTH
-5.413194	AD
-5.413194	ADC
-5.413194	AEC
-5.413194	AF
-5.413194	AG
-5.413194	AH6
-5.413194	AIA
-5.413194	AIChE
-5.413194	AID
-5.413194	AIEE
-5.413194	AIMO
-5.413194	AL
-4.284627	AM	-0.6333528
-5.413194	AMA
-5.413194	AP
-5.413194	APP
-5.413194	ARF
-5.413194	ASDIC
-5.413194	ASME
-5.413194	ASPIS
-5.413194	ASPR
-5.413194	ASW
-5.413194	AT
-5.413194	ATP
-5.413194	AVC
-5.413194	AWOC
-5.413194	Aaawww
-5.413194	Aah
-5.183101	Aaron
-5.413194	Aart
-5.183101	Abandon	-0.133617
-5.413194	Abandoning
-5.413194	Abatuno
-5.413194	Abbas
-5.413194	Abbe
-5.413194	Abbey
-5.413194	Abbot
-5.413194	Abbott
-5.413194	Abdallah
-5.413194	Abe
-5.413194	Abel
-5.413194	Abell
-5.413194	Abelson
-5.413194	Abernathy
-5.413194	Abernathys
-5.413194	Abide
-5.413194	Abigail
-5.413194	Abilene
-5.413194	Ablard
-5.413194	Abner
-5.183101	Abnormal	-0.1336432
-5.413194	Abolition
-5.413194	Abolitionists
-3.80285	About	-0.1947517
-5.413194	Above
-5.413194	Aboveground
-5.413194	Abra
-5.183101	Abraham
-5.413194	Abrams
-5.413194	Abreaction
-5.413194	Abruptly
-5.413194	Absolution
-5.183101	Abstract
-5.413194	Abstraction
-5.413194	Abstractionists
-5.413194	Abstractions
-5.413194	Abstracts
-5.413194	Abuse
-5.413194	Abyssinians
-5.413194	Academicianship
-5.413194	Academy
-5.413194	Acadia
-5.413194	Acala
-5.413194	Acapulco
-5.413194	Accacia
-5.413194	Accademia
-5.413194	Accardo
-5.183101	Accept	-0.2485066
-5.413194	Acceptable
-5.413194	Acceptance
-5.413194	Accepted
-5.413194	Accident
-5.413194	Accidental
-5.413194	Accompanied
-4.860117	According	-0.2410355
-5.413194	Accordingly
-5.413194	Accountability
-5.413194	Accounting
-5.413194	Accounts
-5.413194	Accuracy
-5.413194	Ace
-5.413194	Aces
-5.413194	Acey
-5.413194	Achaeans
-5.413194	Acheson
-5.413194	Achievement
-5.413194	Achieving
-5.413194	Achilles
-5.413194	Ackerly
-5.413194	Acorns
-5.413194	Acourse
-5.413194	Acoustical
-5.413194	Acquiring
-5.413194	Acreage
-5.413194	Acres
-5.413194	Acropolis
-5.413194	Across
-5.413194	Act
-5.413194	Acting
-5.183101	Action	-0.1250528
-5.183101	Actions	-0.1259802
-4.860117	Active	-0.2068125
-5.183101	Actively	-0.1335581
-5.413194	Activities
-5.413194	Activitrax
-5.183101	Activity	-0.133689
-5.413194	Actress
-5.413194	Acts
-5.413194	Actual
-5.183101	Actually	-0.1226104
-5.183101	Ad	-0.1336534
-5.413194	Ada
-5.413194	Adagio
-5.413194	Adair
-5.413194	Adam
-5.413194	Adame
-5.413194	Adamo
-5.413194	Adams
-5.413194	Adamson
-5.413194	Adaptaplex
-5.413194	Adaptation
-5.413194	Adaptations
-5.413194	Adcock
-3.949905	Add	-0.2575623
-5.413194	Addabbo
-5.183101	Added
-5.413194	Addict
-5.413194	Addison
-5.413194	Addition
-5.413194	Additional
-5.413194	Additionally
-5.413194	Additive
-4.085787	Address	-0.5647637
-5.413194	Ade
-5.183101	Adelaide	-0.1335908
-5.413194	Adele
-5.413194	Adelia
-5.413194	Adelos
-5.413194	Adenauer
-5.413194	Adequate
-5.413194	Aderholds
-5.413194	Adherence
-5.413194	Adios
-5.413194	Adirondack
-5.413194	Adirondacks
-5.413194	Adjoining
-5.413194	Adjusted
-5.413194	Adjusting
-5.413194	Adjustment
-5.413194	Adlai
-5.413194	Adler
-5.413194	Admassy
-5.413194	Administration
-5.413194	Administrative
-4.860117	Administrator	-0.1180883
-5.413194	Admirably
-5.413194	Admiralty
-5.183101	Admissions
-5.413194	Admitting
-5.413194	Adnan
-5.413194	Ado
-5.413194	Adolescents
-5.413194	Adolf
-5.413194	Adolphus
-5.413194	Adoniram
-5.413194	Adonis
-5.413194	Adoption
-5.413194	Adrar
-5.413194	Adrian
-5.413194	Adrianople
-5.413194	Adriatic
-5.413194	Adrien
-5.183101	Adult	-0.1337022
-5.413194	Adultery
-5.413194	Adults
-5.413194	Advance
-4.173925	Advanced	-0.1326241
-5.413194	Advancement
-5.413194	Advances
-5.413194	Advantages
-5.413194	Adventists
-5.413194	Adventures
-5.413194	Adverbial
-5.413194	Advertiser
-5.413194	Advertisers
-5.413194	Advertising
-5.413194	Advice
-5.413194	Advise
-5.413194	Advisors
-5.413194	Advisory
-5.413194	Advocate
-5.413194	Aegean
-5.413194	Aerobacter
-5.413194	Aeronautics
-5.413194	Aerospace
-5.413194	Aeschbacher
-5.413194	Aeschylus
-5.413194	Af
-5.413194	Affaire
-5.413194	Affaires
-5.413194	Affairs
-5.413194	Affect
-5.413194	Affirmatively
-5.413194	Afghan
-5.413194	Afghans
-5.413194	Afraid
-5.413194	Afranio
-4.860117	Africa	-0.1303179
-4.085787	African	-0.131114
-5.183101	Africans	-0.1331518
-5.413194	Afrika
-5.413194	Afrique
-4.860117	After	-0.2100828
-5.413194	Afternoon
-5.413194	Afterward
-5.413194	Afterwards
-4.860117	Again	-0.1256979
-5.183101	Against	-0.128045
-5.413194	Agamemnon
-5.413194	Agatha
-4.860117	Age	-0.1234774
-5.413194	Agee
-5.413194	Agencies
-5.413194	Agency
-5.413194	Agents
-5.413194	Ages
-5.413194	Aggie
-5.413194	Aggies
-5.413194	Aggregate
-5.183101	Aging
-5.413194	Agnes
-5.413194	Agnese
-5.413194	Agoeng
-5.413194	Agonale
-5.413194	Agone
-5.413194	Agreeable
-5.183101	Agreement	-0.1965258
-5.413194	Agricultural
-5.413194	Agriculture
-5.413194	Agrimont
-5.413194	Agrippa
-5.413194	Agro-Industrial
-5.413194	Agrobacterium
-5.413194	Aguila
-5.413194	Ah
-5.413194	Ahah
-5.183101	Ahead	-0.1240669
-5.413194	Ahm
-5.413194	Ahmad
-5.413194	Ahmet
-5.413194	Ahmiri
-5.413194	Ahrens
-5.413194	Ahvaz
-5.413194	Ai
-5.413194	Aid
-5.413194	Aida
-5.413194	Aide
-5.413194	Aiding
-5.413194	Aids
-5.413194	Aiken
-5.413194	Aikin
-5.413194	Ailey
-5.183101	Aim	-0.1336991
-5.413194	Ainsley
-5.413194	Ainsworth
-5.413194	Ainu
-5.413194	Ainus
-5.183101	Air	-0.1336825
-5.413194	Aircraft
-5.413194	Airedale
-5.413194	Aires
-5.413194	Airless
-5.413194	Airlines
-5.413194	Airmail
-5.413194	Airpark
-5.183101	Airport	-0.3446016
-5.413194	Airways
-5.413194	Airy
-5.413194	Aj
-5.413194	AjA
-5.413194	AjB
-5.413194	Akiman
-5.413194	Akita
-5.413194	Akron
-5.183101	Al
-5.183101	Alabama
-5.413194	Alabamans
-5.413194	Alabamas
-5.413194	Alabamian
-5.413194	Alacrity
-5.413194	Alai
-5.413194	Alain
-5.413194	Alamein
-5.413194	Alamo
-5.413194	Alamogordo
-5.183101	Alan
-5.183101	Alarm	-0.1336956
-5.413194	Alarmed
-5.413194	Alas
-4.860117	Alaska	-0.1250528
-5.413194	Alastor
-5.413194	Alba
-5.413194	Albacore
-5.413194	Albania
-5.413194	Albanian
-5.413194	Albanians
-5.413194	Albany
-5.413194	Albers
-5.183101	Albert
-5.413194	Alberta
-5.183101	Alberto	-0.129194
-5.413194	Albright
-5.413194	Alcibiades
-5.413194	Alcohol
-5.413194	Alcorn
-5.413194	Alden
-5.413194	Aldermen
-5.413194	Aldo
-5.413194	Aldridge
-5.413194	Alec
-5.413194	Alemagna
-5.413194	Alessio
-5.183101	Alex	-0.1333222
-5.413194	Alexander
-5.413194	Alexandre
-5.413194	Alexandria
-5.413194	Alexei
-5.413194	Alexeyeva
-5.413194	Alexis
-5.413194	Alf
-5.413194	Alfa
-5.413194	Alfonso
-5.413194	Alfred
-5.413194	Alfredo
-5.413194	Alger
-5.413194	Algeria
-5.413194	Algerian
-5.413194	Algol
-5.413194	Ali
-5.413194	Aliah
-4.662069	Alice	-0.1250467
-5.413194	Alicia
-5.413194	Alienus
-5.413194	Aligning
-5.413194	Alison
-5.413194	Alix
-4.433573	All	-0.2468167
-5.413194	Alla
-5.183101	Allah	-0.133689
-5.413194	Allan
-5.413194	Allay
-5.413194	Alleghenies
-5.413194	Allegheny
-5.413194	Allegis
-5.413194	Allegretti
-5.413194	Allegro
-5.413194	Allemands
-5.183101	Allen
-5.413194	Alley
-5.413194	Alliance
-5.183101	Allied
-5.413194	Allied-Signal
-5.413194	Allies
-5.413194	Allison
-5.413194	Allocation
-5.413194	Allons
-5.413194	Allotments
-4.860117	Allow	-0.1550673
-5.413194	Alloy
-5.413194	Allso
-5.413194	Allstates
-5.413194	Alma
-5.413194	Almaden
-5.413194	Almagest
-5.413194	Almanac
-5.183101	Almighty
-5.413194	Almond
-5.413194	Almonds
-4.860117	Almost	-0.1284399
-5.413194	Alokut
-5.183101	Alone	-0.1334598
-5.183101	Along	-0.1295379
-5.413194	Alors
-5.413194	Aloud
-5.413194	Alpers
-5.413194	Alpert
-5.413194	Alperts
-5.413194	Alpha
-5.413194	Alpharetta
-5.413194	Alphonse
-5.413194	Alps
-5.413194	Already
-5.413194	Alsatian
-5.413194	Alsatians
-5.413194	Alsing
-5.183101	Also	-0.1313855
-5.413194	Alsop
-5.413194	Altairians
-5.183101	Altar	-0.2485787
-5.413194	Altenburg
-5.413194	Alterman
-4.860117	Alternate	-0.1335974
-5.413194	Alternately
-5.413194	Althaus
-5.413194	Althea
-5.183101	Although	-0.1331256
-5.413194	Alto
-5.413194	Altogether
-5.413194	Alton
-5.413194	Alumni
-5.413194	Alusik
-5.413194	Alva
-5.413194	Alvarez
-5.413194	Alvear
-5.413194	Alvin
-5.413194	Alvise
-4.860117	Always	-0.1680418
-5.413194	Alwin
-5.183101	Am	-0.455406
-5.413194	Amadee
-5.413194	Amadeus
-5.413194	Amado
-5.413194	Amaral
-5.183101	Amateur	-0.1336498
-5.413194	Amatil
-4.860117	Amazon	-0.1319673
-5.413194	Ambassador
-5.413194	Ambiguity
-5.413194	Ambler
-5.413194	Ambrose
-5.413194	Ambulances
-5.413194	Ambushes
-5.413194	Ameaux
-5.183101	Amen	-0.1260935
-5.413194	Amendment
-5.413194	Amendments
-5.413194	Amenitskii
-4.284627	America	-0.1319112
-3.84656	American	-0.1546816
-5.413194	Americana
-4.433573	Americans	-0.1295092
-5.413194	Americas
-5.413194	Amicam
-5.413194	Amici
-5.413194	Amid
-5.413194	Amis
-5.413194	Ammunition
-5.413194	Amonasro
-5.413194	Among
-5.413194	Amory
-5.413194	Amos
-5.413194	Amp
-5.413194	Amra
-5.183101	Amstel
-4.860117	Amsterdam	-0.1884796
-5.413194	Amstutz
-5.413194	Amt
-4.860117	Amy
-4.433573	An	-0.1477448
-5.183101	Ana
-5.413194	Anabaptist
-5.413194	Anabaptists
-5.413194	Anabel
-5.413194	Anaconda
-5.413194	Analogously
-5.413194	Analyses
-5.413194	Analysis
-5.413194	Analysts
-5.413194	Analytical
-5.413194	Analytrol
-5.413194	Analyzer
-5.413194	Anania
-5.413194	Anatole
-5.413194	Anatomically
-5.413194	Ancel
-5.413194	Anchorite
-5.413194	Ancient
-5.413194	Ancistrodon
-4.433573	And	-0.4803035
-5.413194	Andean
-5.413194	Anderlini
-5.413194	Anders
-5.413194	Andersen
-5.413194	Anderson
-5.413194	Andover
-5.413194	Andre
-5.413194	Andrea
-5.413194	Andreas
-5.413194	Andrei
-5.413194	Andrena
-5.413194	Andres
-5.413194	Andrew
-5.413194	Andrews
-5.413194	Androfski
-5.413194	Andromache
-5.413194	Andrus
-5.413194	Andruses
-5.413194	Andy
-5.413194	Angel
-5.413194	Angeles
-5.413194	Angelico
-5.413194	Angelina
-5.413194	Angell
-5.413194	Angelo
-5.413194	Angels
-5.413194	Anger
-5.413194	Angie
-5.413194	Angleterre
-5.413194	Anglia
-5.413194	Anglican
-5.413194	Anglicanism
-5.413194	Anglicans
-5.413194	Anglophilia
-5.413194	Anglophobia
-5.413194	Angola
-5.413194	Angrily
-5.183101	Angry
-5.413194	Angst
-5.413194	Anheuser-Busch
-5.413194	Anhwei
-5.183101	Animals
-5.413194	Aniseikonic
-5.413194	Anita
-5.413194	Ankara
-4.173925	Ann	-0.1250528
-5.183101	Anna
-5.413194	Annamorena
-5.413194	Annapolis
-4.662069	Anne	-0.2486411
-5.413194	Annie
-5.413194	Annisberg
-5.413194	Anniston
-5.413194	Anniversary
-5.413194	Annual
-4.860117	Another	-0.132786
-5.413194	Anouilh
-5.413194	Anselmo
-5.413194	Ansley
-5.413194	Anson
-5.413194	Answer
-5.413194	Ant
-5.413194	Anta
-5.413194	Antarctica
-5.413194	Antares
-5.413194	Anthea
-5.413194	Anthem
-5.413194	Anthology
-4.860117	Anthony
-5.413194	Anthropologists
-5.413194	Anthropology
-5.413194	Anticipated
-5.413194	Anticipating
-5.413194	Antietam
-5.413194	Antigone
-5.413194	Antinomians
-5.413194	Antiquity
-5.413194	Antisubmarine
-5.413194	Antithyroid
-5.413194	Antler
-5.413194	Antoine
-5.413194	Antoinette
-5.183101	Anton
-5.413194	Antone
-5.413194	Antonini
-5.413194	Antonio
-5.413194	Antony
-5.413194	Ants
-5.413194	Anxiety
-5.413194	Anxious
-4.860117	Any	-0.1312303
-5.183101	Anybody	-0.1334177
-5.413194	Anyhow
-5.183101	Anyone	-0.2002976
-4.860117	Anything	-0.1843469
-5.183101	Anyway	-0.1316085
-5.413194	Anywhere
-5.413194	Anzilotti
-5.413194	Aouelloul
-5.413194	Apache
-5.413194	Apaches
-5.413194	Apalachicola
-5.413194	Aparicio
-5.413194	Apart
-5.413194	Apartment
-5.413194	Apartments
-5.413194	Apergillus
-5.413194	Aphrodite
-5.413194	Apocalypse
-5.413194	Apocalyptic
-5.413194	Apocrypha
-5.413194	Apollinaire
-5.413194	Apollo
-5.413194	Apollonian
-5.413194	Apologia
-5.413194	Apologie
-5.413194	Apologies
-5.413194	Apology
-5.413194	Apostles
-4.860117	App
-5.413194	Appalachian
-5.413194	Appalachians
-5.413194	Appaloosas
-5.413194	Apparatus
-5.183101	Apparel	-0.1334205
-5.183101	Apparently	-0.1323353
-5.413194	Appeal
-5.413194	Appeals
-5.183101	Appendix
-5.413194	Appendixes
-5.413194	Appian
-4.284627	Apple	-0.1599301
-5.413194	Appleby
-5.183101	Apples	-0.1250528
-5.413194	Appleton
-4.662069	Application	-0.1523985
-5.183101	Applications	-0.1335777
-5.183101	Applying	-0.1334729
-5.413194	Appointment
-5.413194	Apprehensively
-5.413194	Apprentice
-5.413194	Approach
-5.413194	Approached
-5.183101	Approaching
-5.413194	Appropriate
-5.413194	Appropriately
-5.413194	Appropriation
-5.413194	Appropriations
-5.413194	Approved
-5.413194	Approximately
-4.662069	April	-0.131398
-5.413194	Apropos
-5.413194	Aqazadeh
-5.413194	Aquacutie
-5.413194	Aquidneck
-5.413194	Aquinas
-5.413194	Aquino
-4.662069	Arab	-0.1332501
-5.413194	Arabia
-4.662069	Arabian
-5.413194	Arabians
-5.183101	Arabic	-0.1336991
-5.413194	Arabs
-5.413194	Araby
-5.413194	Aransas
-5.413194	Arapacis
-5.413194	Arata
-5.413194	Arbeitskommando
-5.413194	Arbitragers
-5.413194	Arbitrary
-5.413194	Arbitration
-5.413194	Arbogast
-5.413194	Arbor
-5.413194	Arbuckle
-5.413194	Arc
-5.413194	Arch
-5.413194	Archaeology
-5.413194	Archangel
-5.413194	Archbishop
-5.413194	Archimedes
-5.413194	Archipelago
-5.183101	Architect
-5.413194	Archives
-5.413194	Archuleta
-5.413194	Arcilla
-5.413194	Arco
-5.413194	Arctic
-5.413194	Arden
-5.413194	Ardent
-5.413194	Ardmore
-4.284627	Are	-1.003426
-5.183101	Area
-5.413194	Areas
-5.413194	Arenula
-5.413194	Arequipa
-5.413194	Ares
-5.183101	Argentina	-0.1288962
-5.413194	Arger
-5.413194	Argiento
-5.413194	Argimont
-5.413194	Argive
-5.413194	Argon
-5.413194	Argonauts
-5.413194	Argos
-5.413194	Arhat
-5.413194	Arhats
-5.413194	Ariadne
-5.413194	Arianism
-5.413194	Arianist
-5.413194	Arianists
-5.413194	Aricaras
-5.413194	Arigato
-5.413194	Arimathea
-5.413194	Aristide
-5.413194	Aristotelian
-5.413194	Aristotle
-5.413194	Arithmetic
-5.413194	Arizona
-5.413194	Arkabutla
-5.413194	Arkansas
-5.413194	Arleigh
-5.413194	Arlen
-5.413194	Arlene
-5.413194	Arlington
-5.413194	Arm
-5.413194	Armacost
-5.413194	Armageddon
-5.413194	Armbro
-5.413194	Armed
-5.413194	Armen
-5.413194	Armenian
-5.413194	Armentieres
-5.413194	Armide
-5.413194	Armies
-5.413194	Armisteads
-5.413194	Armistice
-5.413194	Armond
-5.413194	Armory
-5.413194	Armour
-5.413194	Arms
-5.413194	Armstrong
-5.183101	Army	-0.131398
-5.413194	Arnold
-5.413194	Arnolphe
-5.183101	Around	-0.1289888
-5.413194	Aroused
-5.413194	Arp
-5.413194	Arrack
-5.413194	Arragon
-5.413194	Arrange
-5.413194	Arrangement
-5.413194	Arrangements
-5.413194	Arranging
-5.413194	Arrington
-5.413194	Arriving
-4.860117	Arrow	-0.2067239
-5.413194	Arrowhead
-5.413194	Arshinkoff
-4.860117	Art	-0.1250528
-5.413194	Arte
-5.413194	Artemis
-5.413194	Arterial
-5.413194	Arteries
-5.413194	Artfully
-5.413194	Arthritis
-4.012553	Arthur	-0.2004927
-5.413194	Article
-5.413194	Articles
-5.413194	Artie
-5.413194	Artificer
-5.413194	Artillery
-5.413194	Artisans
-5.183101	Artist
-5.183101	Artistic	-0.1336956
-5.413194	Artists
-5.413194	Artkino
-5.413194	Arts
-5.413194	Artur
-5.413194	Arturo
-5.413194	Arundel
-5.413194	Arvey
-4.173925	As	-0.2028287
-5.413194	Asahi
-5.413194	Asamoah
-5.413194	Asch
-5.413194	Aschenbach
-5.413194	Ash
-5.413194	Ashai
-5.413194	Ashamed
-5.413194	Asher
-5.413194	Asheville
-5.413194	Ashikaga
-5.413194	Ashland
-5.183101	Ashley	-0.1250528
-5.413194	Ashman
-5.413194	Ashmolean
-5.183101	Asia	-0.1317701
-3.726759	Asian	-0.2353622
-4.860117	Asians	-0.1317043
-5.413194	Asiatic
-5.413194	Aside
-5.413194	Asilomar
-4.662069	Ask	-0.1566882
-5.183101	Asked	-0.1288962
-5.413194	Askington
-5.413194	Asks
-5.413194	Asleep
-5.413194	Aspects
-5.413194	Aspencade
-5.413194	Aspencades
-5.413194	Assam
-5.413194	Assassination
-5.413194	Assemble
-5.413194	Assemblies
-5.413194	Assembly
-5.413194	Asser
-5.413194	Asses
-5.413194	Assessment
-5.413194	Assessors
-5.413194	Assign
-5.413194	Assimilation
-5.413194	Assiniboia
-5.413194	Assiniboine
-5.413194	Assist
-5.413194	Assistance
-5.183101	Assistant
-5.413194	Assisting
-5.413194	Associate
-5.413194	Associated
-5.413194	Associates
-5.413194	Association
-5.183101	Associations	-0.1241703
-5.413194	Assonance
-5.413194	Assume
-5.413194	Assuming
-5.413194	Assumption
-5.413194	Assuredly
-5.413194	Assyrian
-5.413194	Assyriology
-5.413194	Astaires
-5.413194	Astarte
-5.413194	Asteria
-5.413194	Asteroidal
-5.413194	Astin
-5.413194	Astonishingly
-5.183101	Astor
-5.413194	Astra
-5.413194	Astronaut
-5.413194	Astronomy
-5.413194	Astwood
-5.413194	Asylum
-4.662069	At	-0.6893421
-5.413194	Aterman
-5.413194	Athabascan
-5.413194	Athalie
-5.413194	Athearn
-5.413194	Athena
-5.413194	Athenian
-5.413194	Athenians
-5.413194	Athens
-5.413194	Athlete
-5.413194	Athletic
-5.413194	Athletics
-5.413194	Atkinson
-5.183101	Atlanta	-0.1260935
-5.413194	Atlantes
-4.662069	Atlantic
-5.413194	Atlantica
-5.413194	Atlantis
-5.413194	Atlas
-5.413194	Atlee
-5.413194	Atomic
-5.413194	Atonement
-5.413194	Atreus
-5.413194	Atta
-5.413194	Attack
-5.413194	Attacks
-5.413194	Attakapas
-5.413194	Attempts
-5.413194	Attendance
-5.413194	Attending
-5.183101	Attention	-0.1318787
-5.413194	Attic
-5.413194	Attica
-5.413194	Attilio
-5.413194	Attitude
-5.413194	Attlee
-5.413194	Attopeu
-5.183101	Attorney	-0.1241703
-5.413194	Attorneys
-5.183101	Attributes	-0.1280878
-5.413194	Attu
-5.413194	Atwells
-5.413194	Auberge
-5.413194	Auburn
-5.413194	Auditorium
-5.413194	Auditors
-5.413194	Audits
-5.413194	Audrey
-5.413194	Audubon
-5.413194	Auf
-5.413194	Aug
-5.413194	August
-5.413194	Augusta
-5.413194	Augustan
-5.413194	Augustin
-5.413194	Augustine
-5.413194	Augustus
-5.183101	Aunt
-5.183101	Auntie
-5.413194	Aurelius
-5.413194	Aureomycin
-5.413194	Aurora
-5.413194	Auschwitz
-5.413194	Austin
-5.183101	Australia	-0.1260935
-4.173925	Australian	-0.1242483
-5.413194	Australites
-5.413194	Austria
-5.183101	Austrian
-5.413194	Authenticated
-5.413194	Author
-5.413194	Authorities
-5.413194	Authority
-4.433573	Auto	-0.1753984
-5.413194	Autobiography
-5.413194	Autocoder
-5.413194	Autocollimator
-5.413194	Autocracies
-5.183101	Automatic	-0.2063373
-5.413194	Automatically
-5.413194	Automobile
-5.413194	Autos
-5.413194	Autosuggestibility
-5.413194	Autumn
-5.413194	Auxiliaries
-5.413194	Auxiliary
-5.413194	Auxton
-4.662069	Available	-0.118082
-5.413194	Aventine
-5.413194	Aventino
-3.895165	Avenue	-0.1160391
-5.413194	Average
-5.413194	Averages
-5.413194	Averell
-5.413194	Avery
-5.413194	Aviation
-5.413194	Avis
-5.413194	Aviv
-5.413194	Avocado
-5.413194	Avocados
-5.413194	Avoid
-5.413194	Avoiding
-5.413194	Avon
-5.413194	Avondale
-5.413194	Avowed
-5.183101	Aw
-5.413194	Awake
-5.413194	Awakening
-5.413194	Award
-5.183101	Away	-0.1332043
-5.183101	Awkwardly	-0.1335908
-5.413194	Ax
-5.413194	Axioms
-5.413194	Axis
-5.413194	Aylesbury
-5.413194	Aysshom
-5.413194	Ayub
-5.413194	Azerbaijan
-5.413194	Azusa
-4.662069	B	-0.1830858
-5.413194	B.A.T
-5.413194	B.C
-5.413194	B70
-5.413194	BAM
-5.413194	BBB
-5.413194	BCD
-5.413194	BD
-5.413194	BG
-5.413194	BGS
-5.413194	BMEWS
-5.413194	BMT
-5.413194	BOARD
-5.413194	BOD
-5.413194	BSN
-5.413194	BTU
-5.413194	BW
-5.413194	Babatunde
-5.413194	Babbitt
-5.413194	Babcock
-4.860117	Babe	-0.2486442
-5.413194	Babel
-5.413194	Babin
-4.860117	Baby	-0.2378225
-5.413194	Babylon
-5.413194	Babylonian
-5.413194	Babylonians
-5.413194	Baccarat
-5.183101	Bacchus
-5.413194	Bach
-5.413194	Bachelor
-5.413194	Bacillus
-3.949905	Back	-0.4404113
-5.413194	Backbends
-4.662069	Background	-0.1474685
-5.413194	Backs
-5.413194	Backstage
-5.413194	Backstairs
-5.413194	Backstitch
-5.413194	Backstitching
-5.413194	Backward
-5.413194	Backyard
-5.413194	Bacon
-5.413194	Bacterial
-4.860117	Bad	-0.1276328
-5.413194	Badlands
-5.413194	Badly
-5.413194	Badrawi
-5.413194	Baer
-5.413194	Baffin
-5.413194	Bafflers
-5.413194	Bagatelles
-5.413194	Bagh
-5.413194	Baghdad
-5.413194	Bagley
-5.413194	Bah
-5.413194	Bahi
-5.413194	Bahia
-5.413194	Baileefe
-5.413194	Bailey
-5.413194	Bailly
-5.413194	Baines
-5.413194	Baird
-5.413194	Bait
-5.413194	Bake
-5.413194	Baker
-5.413194	Bakersfield
-5.413194	Bakhtiari
-5.413194	Baku
-5.413194	Bal
-5.413194	Balafrej
-5.413194	Balaguer
-4.860117	Balanced	-0.1247559
-5.413194	Balcolm
-5.413194	Bald
-5.413194	Baldness
-5.413194	Baldrige
-5.413194	Baldwin
-5.413194	Baldy
-5.413194	Balenciaga
-5.413194	Bales
-5.413194	Bali
-5.413194	Balinese
-5.413194	Balkan
-5.413194	Balkanize
-5.413194	Balkanizing
-5.413194	Balkans
-5.183101	Ball
-5.413194	Ballad
-5.413194	Balladur
-5.413194	Ballard
-5.413194	Ballestre
-5.183101	Ballet
-5.413194	Ballets
-5.413194	Ballistic
-5.413194	Balloon
-5.183101	Ballroom	-0.1250528
-5.413194	Baltic
-5.413194	Baltimore
-5.413194	Baltimorean
-5.413194	Baluch
-5.413194	Balzac
-5.413194	Bambi
-5.413194	Bananas
-5.413194	Banbury
-5.413194	Banca
-5.413194	Bancroft
-5.183101	Band	-0.131398
-5.413194	Bandaging
-5.413194	Bandish
-5.413194	Bandon
-5.413194	Bandstand
-5.413194	Banfield
-5.413194	Bangkok
-5.413194	Bangles
-5.413194	Bangs
-5.413194	Bani
-5.413194	Banjo
-5.183101	Bank
-5.413194	Banker
-5.413194	Bankers
-5.413194	Bankhead
-5.413194	Banks
-5.413194	Banner
-5.413194	Bantu
-5.413194	Bantus
-5.413194	Baptist
-5.413194	Baptiste
-5.413194	Baptists
-3.895165	Bar	-0.2153711
-5.413194	Baraclough
-5.413194	Barataria
-5.183101	Barbara
-5.413194	Barbarians
-5.413194	Barbecued
-5.413194	Barber
-5.413194	Barbour
-5.413194	Barbudos
-5.413194	Barco
-5.413194	Barcus
-5.413194	Bardall
-5.413194	Bardell
-5.183101	Bare
-5.413194	Bari
-5.413194	Baringer
-5.413194	Barker
-5.413194	Barnaba
-5.183101	Barnard	-0.5661229
-4.860117	Barnes	-0.1250528
-5.413194	Barnet
-5.413194	Barnett
-5.413194	Barney
-5.413194	Barnumville
-5.413194	Baroque
-5.413194	Barr
-5.413194	Barre
-5.413194	Barrel
-5.413194	Barren
-5.413194	Barrett
-5.413194	Barrette
-5.413194	Barrington
-5.413194	Barrow
-4.860117	Barry
-5.413194	Barrymores
-5.183101	Bars	-0.1329026
-5.413194	Barsacs
-5.413194	Barstow
-5.413194	Barth
-5.413194	Bartha
-5.413194	Bartholf
-5.413194	Bartleby
-5.413194	Bartlett
-5.413194	Bartok
-5.413194	Bartol
-5.413194	Barton
-5.413194	Bas
-5.413194	Bascom
-5.183101	Base	-0.1326927
-5.413194	Baseball
-5.413194	Based
-5.413194	Basel
-5.413194	Baseman
-5.413194	Basement
-5.413194	Bashaw
-5.413194	Bashir
-4.662069	Basic
-5.413194	Basically
-5.413194	Basie
-5.413194	Basil
-5.413194	Basin
-5.413194	Basing
-5.413194	Basketball
-5.413194	Basler
-5.413194	Baslot
-5.413194	Basra
-5.413194	Bassi
-5.413194	Bassis
-5.413194	Basso
-5.413194	Bast
-5.413194	Bastards
-5.413194	Bastianini
-5.413194	Batavia
-5.413194	Batchelder
-5.413194	Bates
-5.183101	Bath
-5.413194	Bathing
-5.413194	Bathyran
-5.413194	Bathyrans
-5.413194	Batignolles
-5.413194	Batista
-5.413194	Baton
-5.413194	Battalion
-5.413194	Battenkill
-5.413194	Battery
-4.860117	Battle	-0.2430298
-5.413194	Baubles
-5.413194	Baudelaire
-5.183101	Bauer	-0.1336991
-5.413194	Bauhaus
-5.413194	Baullari
-5.413194	Baum
-5.413194	Bavaria
-4.860117	Bay	-0.1336861
-5.413194	Bayaderka
-5.413194	Bayanihan
-5.413194	Bayerische
-5.413194	Bayezit
-5.413194	Baylor
-5.413194	Bayou
-5.413194	Bayreuth
-5.413194	Bazaar
-4.662069	Be	-0.1802176
-5.413194	Bea
-4.860117	Beach	-0.1288962
-5.413194	Bead
-5.413194	Beadle
-5.413194	Beadles
-5.413194	Beads
-5.413194	Beale
-5.413194	Beall
-5.413194	Beallsville
-5.413194	Beam
-5.413194	Beame
-5.413194	Beaming
-5.413194	Bean
-5.413194	Bear
-5.413194	Beard
-5.413194	Bearden
-5.413194	Beardens
-5.413194	Beardslee
-5.183101	Bears	-0.1335515
-5.183101	Beat
-5.413194	Beaten
-5.413194	Beatie
-5.413194	Beatitudes
-5.413194	Beatrice
-5.413194	Beau
-5.413194	Beauchamps
-5.413194	Beauclerk
-5.183101	Beaujolais
-5.413194	Beaulieu
-5.413194	Beaumont
-5.413194	Beautiful
-5.413194	Beauty
-5.413194	Beaver
-5.413194	Beaverton
-5.183101	Became
-5.183101	Because	-0.3074235
-5.413194	Beccaria
-5.413194	Bechhofer
-5.413194	Beck
-5.413194	Becket
-4.662069	Beckett	-0.1276513
-5.413194	Beckman
-5.413194	Beckstrom
-5.413194	Beckworth
-5.413194	Becoming
-5.413194	Bed
-5.413194	Bedbugs
-5.413194	Bede
-5.413194	Bedford
-5.413194	Bedridden
-5.413194	Bedtime
-5.183101	Bee	-0.1241703
-5.413194	Beebe
-5.413194	Beech
-5.413194	Beecher
-5.413194	Beef
-5.183101	Been	-0.1336498
-4.662069	Beer	-0.1250528
-5.413194	Beesemyers
-5.413194	Beethoven
-4.860117	Before	-0.1254237
-5.413194	Begging
-5.413194	Begin
-4.860117	Beginning	-0.4620169
-5.413194	Begley
-5.413194	Behan
-5.183101	Behavior	-0.1326074
-5.183101	Behind
-5.183101	Behold	-0.1281143
-5.413194	Beiderbecke
-5.183101	Being	-0.3160852
-4.662069	Beirut	-0.1233366
-5.413194	Beismortier
-5.413194	Bekkai
-5.413194	Bel
-5.413194	Bela
-5.413194	Belafonte
-5.413194	Belanger
-5.413194	Belasco
-5.413194	Belated
-5.413194	Belge
-5.413194	Belgian
-5.183101	Belgians	-0.1320688
-5.183101	Belgium	-0.1326927
-5.413194	Belief
-5.183101	Believe	-0.1311148
-5.413194	Believing
-5.183101	Bell	-0.1243346
-5.413194	Bella
-5.413194	Belle
-5.413194	Belletch
-5.413194	Belleville
-5.413194	Bellini
-5.413194	Bellman
-5.413194	Bellow
-5.413194	Bellows
-5.413194	Bells
-5.413194	Bellwood
-5.413194	Belmont
-5.413194	Beloved
-5.413194	Below
-5.413194	Belshazzar
-5.413194	Belt
-5.413194	Belton
-5.413194	Belvedere
-5.413194	Belvidere
-5.413194	Belzec
-5.413194	Beman
-5.413194	Ben
-5.413194	Bench
-5.413194	Benched
-5.183101	Bend	-0.1326927
-5.183101	Beneath
-5.413194	Benedick
-5.413194	Benedictine
-5.413194	Benediction
-5.413194	Benefactor
-5.413194	Beneficiary
-5.413194	Benefit
-5.413194	Benelux
-5.413194	Benesi
-5.413194	Benet
-5.413194	Benets
-5.413194	Bengal
-5.413194	Bengali
-5.413194	Benington
-5.413194	Benita
-5.183101	Benjamin
-5.413194	Bennett
-5.413194	Bennington
-5.413194	Benny
-5.413194	Benoit
-5.413194	Benson
-5.413194	Bentham
-5.413194	Bentley
-5.413194	Bentleys
-5.413194	Benzedrine
-5.413194	Benzell
-5.413194	Beowulf
-5.413194	Berche
-5.413194	Berea
-5.413194	Bergamaschi
-5.413194	Berger
-5.413194	Bergson
-5.413194	Beringer
-5.413194	Berkeley
-5.413194	Berkely
-5.413194	Berkman
-5.413194	Berkshires
-5.413194	Berle
-5.413194	Berlin
-5.413194	Berliners
-5.413194	Berlioz
-5.413194	Berlitz
-5.413194	Berman
-5.413194	Bermuda
-5.413194	Bern
-5.413194	Bernard
-5.413194	Bernardine
-5.413194	Bernardo
-5.413194	Berne
-5.413194	Bernet
-5.413194	Bernhard
-5.413194	Bernhardt
-5.183101	Bernie	-0.1260935
-5.413194	Berniece
-5.413194	Bernini
-5.413194	Bernoulli
-5.413194	Bernstein
-5.413194	Beronio
-5.413194	Berra
-5.413194	Berrellez
-5.183101	Berry
-5.413194	Bert
-5.413194	Berteros
-5.413194	Berth
-5.413194	Bertha
-5.413194	Berthelier
-5.413194	Berto
-5.413194	Bertoia
-5.413194	Berton
-5.413194	Bertorelli
-5.413194	Bertrand
-5.413194	Beryl
-5.413194	Beside
-5.183101	Besides
-5.413194	Bess
-5.413194	Bessarabia
-5.413194	Besset
-5.413194	Bessie
-5.183101	Best	-0.128188
-5.413194	Bester
-5.413194	Bestimmung
-5.183101	Bet
-5.183101	Beta	-0.1241703
-5.413194	Betancourt
-4.860117	Beth	-0.1290918
-5.413194	Bethel
-5.413194	Bethlehem
-5.413194	Betsey
-5.413194	Betsy
-4.662069	Better	-0.1325897
-5.413194	Betting
-4.860117	Betty
-5.183101	Between	-0.1307429
-5.413194	Bevel
-5.413194	Beverages
-5.413194	Beverly
-5.413194	Bevo
-5.413194	Bexar
-5.413194	Bey
-5.413194	Beyeler
-5.183101	Beyond	-0.1281143
-5.413194	Bianco
-5.413194	Bibb
-4.284627	Bible	-0.1991088
-5.413194	Biblical
-5.413194	Biblically
-5.413194	Bibliography
-5.413194	Bicycle
-5.413194	Bid
-5.413194	Biddle
-5.413194	Bids
-5.413194	Bienville
-5.413194	Bierce
-5.413194	Bietnar
-4.085787	Big	-0.3178135
-5.413194	Biggest
-4.662069	Bill	-0.2486411
-5.413194	Billie
-5.413194	Billiken
-5.413194	Billikens
-5.413194	Billings
-5.413194	Billions
-5.413194	Bills
-4.860117	Billy
-5.413194	Bimini
-5.413194	Bing
-5.413194	Bingles
-5.413194	Bini
-5.413194	Binomial
-5.413194	Biological
-5.413194	Biotech
-5.413194	Birch
-5.413194	Bird
-5.413194	Birdie
-5.183101	Birds
-5.413194	Birdwhistell
-5.413194	Birdwood
-5.413194	Birgit
-5.413194	Birgitta
-5.413194	Birkhead
-5.413194	Birmingham
-5.413194	Birnbaum
-5.413194	Birth
-5.413194	Biscayne
-5.413194	Bishop
-5.413194	Bishops
-5.413194	Bishopsgate
-5.413194	Bismarck
-5.413194	Bismark
-5.413194	Bisque
-5.413194	Bits
-5.413194	Bitter
-5.413194	Bitterness
-5.413194	Bix
-5.413194	Bizarre
-5.413194	Bizerte
-5.413194	Bjoern
-5.413194	Blaber
-3.80285	Black	-0.5804139
-5.183101	Blackberry	-0.1250528
-5.413194	Blackfeet
-5.413194	Blackman
-5.413194	Blackmer
-5.413194	Blacks
-5.413194	Blackstone
-5.413194	Blackwell
-5.413194	Blackwells
-5.183101	Blaine	-0.1259802
-5.413194	Blair
-5.183101	Blake	-0.1336991
-5.413194	Blakey
-5.183101	Blanc	-0.1259106
-5.413194	Blanchard
-5.183101	Blanche
-5.413194	Blanched
-5.413194	Blanton
-5.413194	Blasingame
-5.413194	Blasphemous
-5.413194	Blatz
-5.413194	Blauberman
-5.413194	Blaustein
-5.413194	Blaylock
-5.413194	Bleaching
-5.413194	Bleak
-5.413194	Bleckley
-5.413194	Bleeker
-5.413194	Blend
-5.413194	Blenheim
-5.183101	Bless
-5.413194	Blessed
-5.413194	Blessings
-5.413194	Blevins
-5.413194	Blimp
-5.183101	Blind	-0.5664111
-5.413194	Blistered
-5.413194	Blitz
-5.413194	Bloch
-4.662069	Block	-0.1852558
-5.413194	Blockade
-5.413194	Blois
-5.413194	Blomdahl
-5.413194	Blood
-5.413194	Bloom
-5.413194	Bloomfield
-5.413194	Blossom
-5.413194	Blowers
-5.413194	Blowing
-4.860117	Blue	-0.1334729
-5.413194	Bluebird
-5.413194	Blueprints
-5.183101	Blues
-5.413194	Blum
-5.413194	Blumberg
-5.413194	Blume
-5.413194	Blumenthal
-5.413194	Blunt
-5.413194	Bluntly
-5.413194	Blush
-5.413194	Bluthenzweig
-5.413194	Blyth
-5.413194	Bo
-5.413194	Boa
-5.413194	Boadicea
-5.413194	Boal
-5.413194	Board
-5.413194	Boards
-5.413194	Boat
-5.413194	Boatel
-5.413194	Boating
-5.413194	Boatmen
-5.413194	Boats
-5.413194	Boatyards
-5.413194	Boaz
-4.662069	Bob	-0.1291911
-5.413194	Bobbie
-5.413194	Bobbsey
-5.413194	Bobby
-5.413194	Bock
-5.413194	Bodenheim
-5.413194	Bodhisattva
-5.413194	Bodily
-5.413194	Bodin
-5.413194	Bodleian
-4.860117	Body	-0.133001
-5.413194	Boehmer
-5.413194	Boeing
-5.413194	Boeotian
-5.413194	Bogartian
-5.413194	Boggs
-5.413194	Bohart
-5.413194	Boheme
-5.413194	Bohemian
-5.413194	Bohlen
-5.413194	Boils
-5.413194	Bois
-5.413194	Boisbriant
-5.413194	Boismassif
-5.413194	Boissoneault
-5.413194	Boland
-5.183101	Bold
-5.413194	Bolet
-5.413194	Bolger
-5.413194	Bolingbroke
-5.413194	Boliou
-5.413194	Bolivar
-5.413194	Bolivia
-5.413194	Bolker
-5.413194	Bologna
-5.413194	Bolovens
-5.413194	Bolsheviks
-5.413194	Bolshevism
-5.413194	Bolshevistic
-5.413194	Bolshoi
-5.413194	Boltzmann
-5.413194	Bomb
-5.413194	Bombay
-5.413194	Bombus
-4.860117	Bon
-5.413194	Bonanza
-5.413194	Bonaparte
-5.413194	Bonaventure
-5.413194	Bond
-5.413194	Bondi
-5.413194	Bonenfant
-4.860117	Bones	-0.1235176
-5.413194	Bonfiglio
-5.413194	Bong
-5.413194	Bonham
-5.413194	Bonhoeffer
-5.413194	Bonhoffer
-5.413194	Boniface
-5.413194	Bonito
-5.413194	Bonjour
-5.413194	Bonn
-5.413194	Bonne
-5.413194	Bonner
-5.413194	Bonnet
-5.413194	Bonnie
-5.413194	Bonnor
-5.413194	Bontempo
-5.413194	Booby
-5.413194	Boogie
-4.860117	Book	-0.1976775
-5.413194	Booker
-5.413194	Bookies
-5.183101	Books
-5.413194	Bookwalter
-5.413194	Boone
-5.413194	Boonton
-5.413194	Boot
-5.413194	Booth
-5.413194	Boothby
-5.413194	Bootle
-5.413194	Boots
-5.413194	Booty
-5.413194	Borak
-5.413194	Bordeau
-4.860117	Bordeaux	-0.127756
-5.413194	Bordel
-5.413194	Borden
-5.413194	Bordens
-5.183101	Border	-0.1334009
-5.413194	Bordner
-5.413194	Bore
-5.413194	Boredom
-5.413194	Borg
-5.413194	Borglum
-5.413194	Boris
-5.413194	Borland
-5.413194	Born
-5.413194	Borneo
-5.413194	Bornholm
-5.413194	Boron
-5.413194	Borough
-5.413194	Borromini
-5.413194	Borrowing
-5.413194	Bosch
-5.413194	Bosco
-5.413194	Bosis
-5.413194	Bosler
-5.413194	Bosley
-5.413194	Bosphorus
-5.413194	Boss
-5.413194	Bostitch
-4.662069	Boston	-0.1318424
-5.183101	Bostonian
-5.413194	Bostonians
-4.860117	Both	-0.127641
-5.413194	Bottega
-5.413194	Bottineau
-4.860117	Bottom	-0.1333193
-5.413194	Bottoms
-5.413194	Botulinal
-5.413194	Boucher
-5.413194	Bougie
-5.413194	Boulder
-5.413194	Boulevard
-5.413194	Boulez
-5.413194	Boulle
-5.413194	Boun
-5.413194	Boundary
-5.413194	Bourbon
-5.413194	Bourbons
-5.413194	Bourcier
-5.413194	Bourgeois
-5.413194	Bourguiba
-5.413194	Bourn
-5.413194	Boutflower
-5.413194	Bouton
-5.413194	Bouvardier
-5.413194	Bouvier
-5.183101	Bow
-5.413194	Bowan
-5.413194	Bowater
-5.413194	Bowden
-5.413194	Bowdoin
-5.413194	Bowers
-5.413194	Bowes
-5.183101	Bowie	-0.127756
-5.413194	Bowl
-5.183101	Bowling	-0.129194
-5.413194	Bowman
-4.284627	Box	-0.1247943
-5.413194	Boxell
-5.413194	Boxford
-5.413194	Boxwood
-4.662069	Boy	-0.2878507
-5.413194	Boyce
-5.413194	Boyd
-5.413194	Boyer
-5.413194	Boylston
-5.183101	Boys	-0.1336991
-5.183101	Brace	-0.12657
-5.413194	Bracken
-5.413194	Braden
-5.413194	Bradford
-5.413194	Bradley
-5.413194	Brady
-5.413194	Brae
-5.413194	Bragg
-5.413194	Brahmaputra
-5.413194	Brahms
-5.413194	Brahmsian
-5.413194	Braille
-5.413194	Brailsford
-5.413194	Brain
-5.413194	Brainards
-5.413194	Brains
-5.413194	Brakes
-5.413194	Brakke
-4.860117	Branch	-0.1336105
-5.413194	Branchville
-5.413194	Brandeis
-5.413194	Brandel
-5.413194	Brandenburg
-5.413194	Brandon
-5.413194	Brandt
-5.413194	Brandywine
-5.413194	Brannon
-5.413194	Branum
-5.413194	Braque
-5.413194	Braques
-5.413194	Brasilia
-5.413194	Brass
-5.413194	Brassica
-5.413194	Brassnose
-5.413194	Brasstown
-5.413194	Braud
-5.413194	Braun
-5.413194	Bravado
-5.183101	Brave	-0.2485525
-5.413194	Braves
-5.413194	Bravo
-5.413194	Brazil
-5.413194	Brazilian
-5.413194	Brazos
-5.183101	Break	-0.2470371
-5.413194	Breakfast
-5.413194	Breakthrough
-5.413194	Breasted
-5.413194	Breath
-5.413194	Breathing
-5.183101	Breed	-0.1250528
-5.413194	Breeding
-5.413194	Bregman
-5.413194	Brelin
-5.413194	Bremerton
-5.413194	Bremsstrahlung
-5.413194	Brendan
-5.413194	Brennan
-5.413194	Brenner
-5.413194	Brest
-5.413194	Brestowe
-5.413194	Breton
-5.413194	Brett
-5.413194	Breuer
-5.413194	Brevard
-5.413194	Breve
-5.413194	Brevet
-5.413194	Brew
-5.413194	Brewers
-5.413194	Brewery
-4.860117	Brian	-0.1336862
-5.413194	Briar
-5.413194	Brice
-5.413194	Bricker
-5.413194	Bricks
-5.413194	Bricktop
-5.413194	Bride
-5.413194	Bridewell
-4.433573	Bridge	-0.4365476
-5.413194	Bridgeport
-5.413194	Bridges
-5.413194	Bridget
-5.413194	Bridgewater
-5.413194	Brief
-5.413194	Briefer
-5.413194	Brieff
-5.413194	Briefly
-5.413194	Brien
-5.413194	Brigade
-5.413194	Brigadier
-5.413194	Brigadoon
-5.413194	Brigantine
-5.413194	Briggs
-5.413194	Brighetti
-4.860117	Bright	-0.2388461
-5.413194	Brindisi
-4.860117	Bring	-0.673036
-5.413194	Brinkley
-5.413194	Brinsley
-5.413194	Brisbane
-5.413194	Bristol
-5.413194	Bristol-Myers
-5.183101	Britain	-0.1288962
-5.413194	Britannic
-5.413194	Britannica
-5.413194	Britches
-4.085787	British	-0.3615424
-5.413194	Britisher
-5.413194	Brito
-5.413194	Briton
-5.413194	Britons
-5.413194	Brittany
-5.413194	Britten
-5.413194	Broad
-5.413194	Broadcasters
-5.413194	Broadcasting
-5.413194	Broadly
-4.662069	Broadway	-0.3744023
-5.413194	Brocklin
-5.413194	Brod
-5.413194	Brodbeck
-5.413194	Brodie
-5.413194	Broeg
-5.413194	Broglie
-5.413194	Broglio
-5.413194	Broil
-5.413194	Broiled
-5.183101	Broke
-5.413194	Bromley
-5.413194	Broncos
-5.413194	Broncs
-5.413194	Bronislaw
-4.662069	Bronx	-0.1634781
-5.413194	Brooding
-5.413194	Brook
-5.413194	Brooke
-5.413194	Brookfield
-3.76314	Brooklyn	-0.134795
-5.413194	Brookmont
-5.413194	Brooks
-5.183101	Broome	-0.1241703
-4.662069	Brother	-0.1336927
-5.413194	Brotherhood
-5.413194	Brothers
-5.413194	Broun
-4.860117	Brown	-0.1336825
-5.413194	Brownapopolus
-5.413194	Browne
-5.413194	Brownell
-5.413194	Browning
-5.413194	Brownings
-5.413194	Brownlow
-5.413194	Broxodent
-5.183101	Bruce	-0.1337022
-5.413194	Bruckmann
-5.413194	Bruckner
-5.413194	Bruegel
-5.413194	Bruhn
-5.413194	Bruises
-5.413194	Brumby
-5.413194	Brumidi
-5.413194	Bruno
-5.413194	Brush
-5.413194	Brussels
-5.413194	Bruxelles
-5.413194	Bryan
-5.413194	Bryant
-5.413194	Bryce
-5.413194	Bryn
-5.413194	Bryson
-5.413194	Buaford
-5.413194	Bubenik
-5.413194	Buber
-5.413194	Bucer
-5.413194	Buchanan
-5.413194	Bucharest
-5.413194	Buchenwald
-5.413194	Buchheister
-5.413194	Buck
-5.413194	Buckenham
-5.413194	Buckets
-5.413194	Buckhannon
-5.413194	Buckhead
-5.413194	Buckley
-5.413194	Buckman
-5.413194	Buckra
-5.413194	Bucks
-5.413194	Bucky
-5.413194	Bucs
-5.183101	Bud
-5.413194	Budapest
-5.413194	Budd
-5.413194	Buddha
-5.413194	Buddhism
-5.413194	Buddhist
-5.413194	Buddhists
-5.413194	Buddy
-5.413194	Budget
-5.413194	Budgetary
-5.413194	Budgeting
-5.413194	Budieshein
-5.413194	Budlong
-5.413194	Budweisers
-5.413194	Budzyn
-5.413194	Buell
-5.413194	Buena
-5.413194	Buenas
-5.413194	Bueno
-5.413194	Buenos
-5.413194	Buffalo
-5.413194	Buffeted
-4.284627	Bug	-0.1553891
-5.413194	Bugatti
-5.413194	Bugle
-5.413194	Bugs
-5.413194	Buick
-4.173925	Build	-0.2055404
-5.413194	Builder
-5.413194	Builders
-4.662069	Building	-0.2770779
-5.413194	Built
-5.413194	Bulba
-5.413194	Bulgaria
-5.413194	Bulge
-5.413194	Bull
-5.413194	Bullet
-5.413194	Bulletin
-5.183101	Bullets	-0.1329486
-5.413194	Bullfinch
-5.413194	Bulloch
-5.413194	Bullshit
-5.413194	Bully
-5.413194	Bultmann
-5.413194	Bumblebees
-5.413194	Bumbry
-5.413194	Bunch
-5.413194	Bundaberg
-5.413194	Bundesbank
-5.413194	Bundestag
-5.413194	Bundey
-5.183101	Bundle	-0.1332633
-5.413194	Bundy
-5.413194	Bunks
-5.413194	Bunny
-5.413194	Bunyan
-5.413194	Burbank
-5.413194	Burch
-5.413194	Burckhardt
-5.413194	Bureau
-5.413194	Buren
-5.413194	Burford
-5.183101	Burger
-5.413194	Burgess
-5.413194	Burgesses
-5.413194	Burghardt
-5.413194	Burgher
-5.413194	Burghley
-4.284627	Burgundian	-0.1320593
-5.413194	Burgundies
-4.085787	Burgundy	-0.1605342
-5.413194	Buri
-5.413194	Burial
-5.413194	Buries
-5.413194	Burke
-5.413194	Burkes
-5.413194	Burkette
-5.413194	Burle
-5.413194	Burleson
-5.413194	Burlingame
-5.413194	Burlingham
-5.413194	Burlington
-5.183101	Burly
-5.413194	Burma
-5.413194	Burman
-5.413194	Burmans
-5.413194	Burmese
-5.413194	Burnell
-5.413194	Burnes
-5.413194	Burnet
-5.413194	Burnham
-5.183101	Burning
-5.413194	Burns
-5.413194	Burnside
-5.413194	Burnsides
-5.183101	Burnt
-5.413194	Burr
-5.413194	Burro
-5.413194	Burst
-5.413194	Bursting
-5.413194	Bursts
-5.183101	Burt	-0.1337022
-5.413194	Burton
-5.413194	Bury
-5.413194	Busch
-4.173925	Bush	-0.1600736
-5.413194	Bushell
-5.413194	Bushes
-5.413194	Bushnell
-4.433573	Business	-0.1332341
-5.413194	Businesses
-5.413194	Businessmen
-5.413194	Bust
-5.413194	Bustard
-5.413194	Buster
-4.662069	But	-0.5293362
-5.413194	Butcher
-5.413194	Butler
-5.413194	Butlers
-5.413194	Butt
-5.413194	Butte
-4.860117	Butter	-0.1250528
-5.413194	Butterwyn
-4.284627	Button	-0.1397264
-5.413194	Buttrick
-5.413194	Buttrose
-5.413194	Buxtehude
-5.413194	Buxton
-5.183101	Buy	-0.1263074
-5.413194	Buying
-5.183101	Buzz
-4.860117	By	-0.2494228
-5.413194	Bybee
-5.413194	Bye
-5.413194	Bylot
-5.413194	Byrd
-5.413194	Byrnes
-5.183101	Byron
-5.413194	Byronic
-5.413194	Byronism
-5.413194	Bystrzyca
-5.413194	Byzantine
-5.413194	Byzantium
-5.413194	Byzas
-4.085787	C	-0.1186791
-5.413194	C.H
-5.413194	C.S.C
-5.413194	CB
-5.413194	CBS
-5.413194	CCC
-5.413194	CCL
-4.860117	CD	-0.1260935
-5.413194	CDC
-5.413194	CH
-5.413194	CIF
-5.413194	CIIF
-5.413194	CJS
-5.413194	CO
-5.413194	COAHR
-5.413194	COFACE
-5.413194	COLH
-5.413194	COMPAQ
-5.413194	CONELRAD
-5.183101	CPA	-0.1250528
-5.413194	CPO
-5.413194	CRA
-5.413194	CSF
-5.413194	CTA
-5.413194	CTCA
-5.413194	CTS
-5.413194	CV
-5.413194	Cabana
-5.413194	Cabin
-5.413194	Cabinet
-5.183101	Cable
-5.413194	Cabot
-5.413194	Cabrini
-5.413194	Cacophonist
-5.413194	Caddy
-5.413194	Cadesi
-5.413194	Cadet
-5.413194	Cadillac
-5.413194	Cadillacs
-5.413194	Cady
-4.860117	Caesar	-0.1331322
-5.413194	Caetani
-5.413194	Cafe
-5.413194	Cafeteria
-5.413194	Cafritz
-5.413194	Cagayan
-5.413194	Cahill
-4.860117	Cain	-0.1320462
-5.413194	Cairns
-5.413194	Cairo
-5.413194	Cairoli
-5.413194	Caius
-5.413194	Cal
-5.413194	Calabria
-5.413194	Calamity
-5.413194	Calcium
-5.413194	Calculations
-5.413194	Calcutta
-5.413194	Calder
-5.413194	Calderone
-5.413194	Caldwell
-5.413194	Caleb
-5.413194	Calenda
-5.413194	Calf
-5.413194	Calhoun
-5.413194	Calif.
-4.860117	California	-0.131398
-5.413194	Californians
-5.413194	Caligula
-5.413194	Calimala
-4.860117	Call	-0.1974398
-5.413194	Callan
-5.413194	Callas
-5.183101	Called
-5.413194	Calling
-5.413194	Calloused
-5.413194	Calls
-5.183101	Calm
-5.413194	Calmer
-5.413194	Calmly
-5.413194	Caltech
-5.413194	Calude
-5.413194	Calvary
-5.413194	Calves
-5.413194	Calvin
-5.413194	Calvinist
-5.413194	Cam
-5.413194	Camaret
-5.183101	Cambodia	-0.1260935
-5.183101	Cambridge
-5.413194	Cambridgeport
-5.413194	Camden
-5.413194	Came
-5.183101	Camelot	-0.129194
-5.413194	Camels
-5.413194	Cameo
-5.413194	Camera
-5.413194	Cameras
-5.413194	Cameron
-5.413194	Cami
-5.413194	Camilla
-5.413194	Camille
-5.413194	Camilo
-4.860117	Camp	-0.1288962
-5.413194	Campagnoli
-5.183101	Campaign	-0.1259802
-5.413194	Campaigne
-5.413194	Campaigning
-5.413194	Campbell
-5.413194	Campground
-5.413194	Camping
-5.413194	Campitelli
-5.413194	Campo
-5.413194	Campobello
-5.413194	Campus
-5.413194	Camusfearna
-4.662069	Can	-0.9443212
-4.860117	Canada	-0.1310197
-4.860117	Canadian	-0.1250528
-5.413194	Canadians
-4.433573	Canal	-0.3446475
-5.413194	Canandaigua
-5.413194	Canberra
-5.183101	Cancer	-0.1337022
-5.413194	Candide
-5.413194	Candle
-5.413194	Candlelight
-5.413194	Candlestick
-5.413194	Candy
-5.413194	Caneli
-5.413194	Canestrani
-5.413194	Canion
-5.413194	Canned
-5.413194	Canneries
-5.413194	Cannibal
-5.413194	Canning
-5.413194	Cannon
-5.413194	Canoe
-5.413194	Canon
-5.413194	Canteloube
-5.413194	Canterbury
-5.413194	Canticle
-5.413194	Cantonese
-5.413194	Cantor
-5.413194	Canute
-5.183101	Canyon	-0.1280878
-5.413194	Cap
-5.413194	Capable
-5.413194	Cape
-5.413194	Capel
-5.413194	Capellan
-5.413194	Capello
-5.413194	Caper
-5.413194	Capet
-5.413194	Capetown
-5.413194	Capistrano
-5.413194	Capital
-5.413194	Capitalism
-5.183101	Capitalist
-5.413194	Capitol
-5.413194	Capitoline
-5.413194	Capo
-5.413194	Capone
-5.413194	Capote
-5.413194	Cappy
-5.413194	Capricorn
-4.662069	Captain	-0.2483887
-5.413194	Car
-5.413194	Caracas
-5.413194	Carausius
-5.413194	Caravaggio
-5.413194	Caravan
-5.413194	Carbide
-5.413194	Carboloy
-5.413194	Carbon
-5.413194	Carbondale
-5.413194	Carbones
-5.413194	Cardboard
-5.413194	Cardinal
-5.413194	Cardinals
-5.413194	Cardiovascular
-5.413194	Cardiovasculatory
-5.413194	Cards
-5.183101	Care	-0.1260935
-5.183101	Careful
-5.413194	Carefully
-5.413194	Careless
-5.413194	Cares
-5.413194	Carey
-5.413194	Cargo
-5.183101	Caribbean	-0.2484084
-5.183101	Caring
-5.413194	Carl
-5.183101	Carla	-0.129194
-5.413194	Carleton
-5.413194	Carletonian
-5.413194	Carlisle
-5.413194	Carlo
-5.413194	Carlson
-5.413194	Carmack
-5.413194	Carmen
-5.413194	Carmer
-5.413194	Carmichael
-5.413194	Carmine
-5.413194	Carmody
-5.413194	Carnegey
-5.413194	Carnegie
-5.413194	Carneigie
-5.413194	Carney
-5.413194	Carnival
-5.413194	Carnochan
-5.413194	Carol
-5.413194	Caroli
-5.183101	Carolina	-0.1250528
-5.413194	Carolinas
-5.413194	Caroline
-5.413194	Carolingian
-5.413194	Carolinians
-5.413194	Carols
-5.413194	Carolyn
-5.413194	Caron
-5.413194	Carpathians
-5.413194	Carpenters
-5.413194	Carpentier
-5.413194	Carr
-5.413194	Carrara
-5.413194	Carraway
-5.413194	Carre
-5.413194	Carrel
-5.413194	Carreon
-5.413194	Carriages
-5.183101	Carrie	-0.1337022
-5.413194	Carried
-5.413194	Carrier
-5.413194	Carroll
-5.413194	Carrots
-5.413194	Carrozza
-5.413194	Carruthers
-5.413194	Carrying
-5.413194	Cars
-4.860117	Carson	-0.2486442
-5.413194	Carsten
-5.413194	Cartel
-5.413194	Carter
-5.413194	Carters
-5.413194	Cartesian
-5.413194	Carthage
-5.413194	Carthago
-5.413194	Cartoons
-5.413194	Carty
-5.413194	Caruso
-5.413194	Carvalho
-5.413194	Carvey
-5.413194	Carving
-5.413194	Carwood
-5.413194	Casals
-5.413194	Casanova
-5.413194	Casassa
-5.413194	Casbah
-5.413194	Casca
-5.413194	Cascaded
-5.413194	Cascading
-5.413194	Case
-5.183101	Cases	-0.1337022
-5.413194	Casey
-4.860117	Cash	-0.3446671
-5.413194	Casino
-5.413194	Cassiopeia
-5.413194	Cassite
-5.413194	Cassius
-5.413194	Castaneda
-5.413194	Castillo
-4.433573	Castle	-0.1966733
-5.413194	Castles
-5.413194	Castor
-5.413194	Castro
-5.413194	Castroism
-5.413194	Castros
-5.413194	Casualties
-5.413194	Casualty
-5.183101	Cat	-0.1336367
-5.413194	Catalog
-5.413194	Catastrophe
-5.413194	Catatonia
-5.413194	Catch
-5.183101	Catcher	-0.1259802
-5.413194	Cater
-5.413194	Catfish
-5.413194	Cathedral
-5.413194	Catherine
-5.413194	Catherwood
-5.413194	Catheter
-3.895165	Catholic	-0.1689287
-5.413194	Catholicism
-5.183101	Catholics	-0.1260935
-5.413194	Cathy
-5.413194	Catinari
-5.413194	Cats
-5.413194	Catskill
-5.413194	Catskills
-5.413194	Catt
-5.413194	Cattle
-5.413194	Caucasian
-5.413194	Caucasus
-5.413194	Caucusing
-5.413194	Cauffman
-5.413194	Caught
-5.183101	Cause	-0.1316085
-4.662069	Causes	-0.1336503
-5.413194	Caution
-5.413194	Cautious
-5.413194	Cautiously
-5.413194	Cav
-5.413194	Cavaliere
-5.413194	Cavallinis
-5.413194	Cavalry
-5.413194	Cavanagh
-5.413194	Caverns
-5.413194	Caves
-5.413194	Ceartaine
-5.413194	Cebu
-5.413194	Cecil
-5.413194	Cecilia
-5.413194	Cedar
-5.413194	Cedric
-5.413194	Cedvet
-5.413194	Ceecee
-5.413194	Ceil
-5.413194	Ceilings
-5.413194	Celanese
-5.413194	Celebes
-5.413194	Celebration
-5.413194	Celia
-5.413194	Celie
-5.413194	Cell
-5.413194	Cellist
-5.413194	Cellulose
-5.413194	Celso
-5.413194	Celtic
-5.413194	Cemal
-5.413194	Cement
-5.413194	Cemetery
-5.413194	Cennini
-5.413194	Cennino
-5.413194	Census
-5.413194	Centennial
-4.662069	Center	-0.3351549
-5.413194	Centering
-5.413194	Centigrade
-3.949905	Central	-0.4826048
-5.413194	Centrale
-5.413194	Centralia
-5.413194	Centrality
-5.413194	Centrally
-5.413194	Centre-West
-5.413194	Centredale
-5.183101	Century
-5.413194	Cepheus
-5.413194	Ceramic
-5.413194	Cereal
-5.413194	Cerebral
-5.413194	Ceremonial
-5.413194	Cerise
-5.413194	Ceroni
-4.662069	Certain	-0.1331948
-5.183101	Certainly	-0.1278194
-5.183101	Certified	-0.1322265
-5.413194	Cerv
-5.413194	Cervantes
-5.413194	Cervetto
-5.413194	Cesare
-5.413194	Cestre
-5.413194	Ceylon
-5.413194	Cezanne
-5.413194	Cezannes
-4.860117	Chablis	-0.1268228
-5.413194	Chabrier
-5.413194	Chaco
-5.413194	Chadroe
-5.413194	Chadwick
-5.413194	Chaffey
-5.413194	Chahar
-5.413194	Chaikoff
-5.413194	Chain
-5.413194	Chairman
-5.413194	Chairs
-5.413194	Chalidale
-5.413194	Challenge
-5.413194	Chalmers
-5.413194	Chamber
-5.413194	Chamberlain
-5.413194	Chambers
-5.413194	Chambre
-5.413194	Champ
-5.413194	Champassak
-5.413194	Champion
-5.413194	Champlain
-5.413194	Champs
-5.413194	Chance
-5.413194	Chancellor
-5.413194	Chancellorsville
-5.413194	Chandler
-4.662069	Change	-0.1383701
-5.413194	Changeable
-4.860117	Changes	-0.1735798
-5.183101	Changing	-0.2173171
-5.183101	Channel	-0.1336599
-5.413194	Channing
-5.413194	Chantilly
-5.183101	Chapel	-0.1336825
-5.413194	Chapelles
-5.413194	Chaplain
-5.413194	Chaplin
-5.413194	Chapman
-5.413194	Chappell
-5.183101	Chapter
-5.413194	Chapters
-4.860117	Character
-5.413194	Characteristically
-5.413194	Characteristics
-5.413194	Charcoal
-5.413194	Chardon
-5.413194	Charge
-5.413194	Charges
-5.413194	Charitable
-5.413194	Charity
-5.413194	Charlayne
-4.662069	Charles
-5.413194	Charleston
-5.413194	Charley
-4.860117	Charlie	-0.1335122
-5.413194	Charlotte
-5.413194	Charlottesville
-5.413194	Charm
-5.413194	Charmer
-4.860117	Charming	-0.1201466
-5.413194	Charnock
-5.183101	Chart	-0.1289888
-5.413194	Charter
-5.183101	Charters
-5.413194	Chartres
-5.413194	Charts
-5.183101	Chase	-0.127756
-5.413194	Chases
-5.413194	Chateau
-5.413194	Chatham
-5.413194	Chattanooga
-5.183101	Chaucer	-0.1250528
-5.413194	Chauncey
-5.413194	Chautauqua
-5.413194	Chaves
-5.413194	Chavez
-5.413194	Chavis
-5.413194	Che
-5.413194	Cheap
-5.413194	Cheat
-4.860117	Check	-0.1538577
-5.413194	Checkit
-5.413194	Cheddi
-5.413194	Cheer
-5.413194	Cheerful
-5.413194	Chef
-5.413194	Chehel
-5.413194	Chekhov
-5.413194	Chelmno
-5.413194	Chemical
-5.413194	Chemische
-5.413194	Chen
-5.413194	Cheng
-5.413194	Chenoweth
-5.413194	Cherkasov
-5.413194	Chernishev
-4.860117	Cherokee	-0.1239464
-5.413194	Cherokees
-5.183101	Cherry	-0.1334467
-5.413194	Cherwell
-5.413194	Ches
-5.413194	Chesapeake
-5.413194	Chesebrough
-5.413194	Cheshire
-5.413194	Chesly
-5.413194	Chester
-5.413194	Chesterton
-5.413194	Chestnut
-5.413194	Chestnuts
-5.413194	Chevalier
-5.413194	Chevrolet
-4.860117	Chevy	-0.1337022
-5.413194	Chewing
-5.413194	Cheyenne
-5.413194	Cheyennes
-5.183101	Chi	-0.1337022
-5.413194	Chiang
-5.413194	Chiaromonte
-5.413194	Chiba
-4.662069	Chicago	-0.1142648
-5.413194	Chicagoans
-5.413194	Chickasaws
-4.662069	Chicken	-0.1280517
-5.413194	Chickens
-5.413194	Chico
-5.413194	Chief
-5.413194	Chiefly
-5.413194	Chiefs
-5.413194	Chieftains
-5.413194	Chien
-5.413194	Chieti
-5.413194	Chiggers
-5.413194	Chilblains
-5.183101	Child	-0.1337022
-5.413194	Childe
-5.413194	Childhood
-5.183101	Children	-0.1280878
-5.413194	Chile
-5.413194	Chili
-5.413194	Chin
-4.085787	China	-0.1474378
-5.413194	Chinaman
-3.399397	Chinese	-0.1588542
-5.413194	Ching
-5.413194	Chion
-5.183101	Chip
-5.413194	Chippendale
-5.413194	Chipping
-5.413194	Chips
-5.413194	Chisholm
-5.413194	Chiuchow
-5.413194	Chlorothiazide
-5.413194	Chlortetracycline
-5.413194	Choctaw
-5.413194	Choctaws
-5.183101	Choice	-0.1280878
-5.413194	Choir
-5.413194	Cholesterol
-5.183101	Choose	-0.1260935
-5.413194	Chopin
-5.413194	Choral
-5.413194	Chorale
-5.413194	Choreographed
-5.413194	Chorus
-5.413194	Chou
-4.662069	Chris	-0.133689
-5.413194	Chrissake
-4.433573	Christ	-0.110801
-5.413194	Christendom
-5.413194	Christi
-4.173925	Christian	-0.1250172
-5.413194	Christiana
-5.413194	Christianity
-4.860117	Christians	-0.2046099
-5.413194	Christiansen
-5.413194	Christie
-5.413194	Christine
-3.84656	Christmas	-0.1184335
-5.413194	Christmastime
-5.413194	Christopher
-5.413194	Christsake
-5.183101	Christy	-0.1335581
-5.413194	Chromatography
-5.413194	Chromium
-5.413194	Chromspun
-5.413194	Chronicle
-5.413194	Chronicles
-5.183101	Chrysler
-4.662069	Chuck	-0.1337022
-5.413194	Chung
-4.860117	Church	-0.2015587
-5.413194	Churches
-5.413194	Churchill
-5.413194	Churchillian
-5.413194	Churchyard
-5.413194	Ciao
-5.413194	Ciardi
-5.413194	Cicero
-5.413194	Ciceronian
-5.413194	Ciciulla
-5.413194	Cicognani
-5.413194	Cieca
-5.413194	Cigarette
-5.413194	Cimabue
-5.413194	Cimoli
-5.413194	Cincinnati
-5.413194	Cinemactor
-5.413194	Cinerama
-5.413194	Cipolla
-5.413194	Circle
-5.183101	Circuit	-0.1281143
-5.413194	Circular
-5.413194	Circumstance
-5.413194	Circumstances
-5.413194	Circus
-5.413194	Cites
-5.183101	Citibank
-5.413194	Cities
-5.413194	Citing
-5.413194	Citizen
-5.413194	Citizens
-5.413194	Citroen
-4.173925	City	-0.1856496
-5.413194	Ciudad
-5.413194	Civic
-5.183101	Civil
-5.413194	Civilian
-5.413194	Civilization
-5.413194	Clad
-5.413194	Claim
-5.413194	Claims
-5.413194	Clair
-5.413194	Claire
-5.413194	Clams
-5.413194	Clapping
-5.413194	Clara
-5.183101	Clare	-0.131398
-5.413194	Clarence
-5.183101	Clark	-0.2486442
-5.413194	Clarke
-5.413194	Clasping
-5.183101	Class	-0.1332764
-5.413194	Classes
-4.662069	Classic	-0.1266343
-5.413194	Classical
-5.413194	Classicist
-5.413194	Classified
-5.183101	Claude
-5.413194	Claudio
-5.183101	Claus	-0.1328436
-5.413194	Clay
-5.413194	Clayton
-4.433573	Clean	-0.3159495
-5.413194	Cleaned
-5.413194	Cleaner
-5.183101	Cleaning
-5.413194	Cleanth
-5.413194	Clearer
-5.183101	Clearly	-0.1278069
-5.413194	Clearwater
-5.413194	Clemence
-5.413194	Clemenceau
-5.413194	Clemens
-5.413194	Clement
-5.413194	Clemente
-5.413194	Clements
-5.413194	Clerfayt
-5.413194	Clericis
-5.183101	Clerks
-5.413194	Cleva
-4.860117	Cleveland
-5.413194	Clever
-5.413194	Cliburn
-5.413194	Cliff
-5.413194	Clifford
-5.413194	Clifton
-5.413194	Climb
-5.183101	Climbing	-0.1326927
-5.183101	Clint
-4.860117	Clinton	-0.2483232
-5.413194	Clipper
-5.183101	Clive	-0.1337022
-4.433573	Close	-0.1083447
-4.860117	Closed	-0.1199717
-5.413194	Closely
-5.413194	Closer
-5.413194	Clostridium
-5.413194	Cloth
-5.413194	Clothes
-5.413194	Cloud
-5.413194	Cloudcroft
-5.413194	Clouds
-5.413194	Clov
-4.860117	Club
-5.413194	Clubhouse
-5.413194	Clubs
-5.413194	Cluck
-5.413194	Clumps
-5.413194	Clurman
-5.413194	Clyde
-5.413194	Clyfford
-5.413194	Co
-5.413194	Co.
-5.183101	Coach	-0.1337022
-5.413194	Coaching
-5.413194	Coal
-4.860117	Coast	-0.1320688
-5.413194	Coastal
-5.413194	Coates
-5.413194	Cobb
-5.413194	Coble
-5.183101	Cochran	-0.1250528
-5.413194	Cocktail
-5.413194	Cocktails
-5.413194	Cocoa
-5.413194	Coconut
-5.413194	Coconuts
-5.413194	Cocteau
-5.413194	Cod
-5.413194	Coddington
-4.860117	Code	-0.1749982
-5.413194	Code-A-Phone
-5.413194	Codification
-5.413194	Cody
-5.413194	Coe
-5.413194	Coebergh
-5.413194	Coeditors
-5.183101	Coffee
-5.413194	Coffin
-5.413194	Cohen
-5.413194	Cohn
-5.413194	Cojuangco
-5.183101	Coke	-0.1329223
-5.413194	Cokes
-5.413194	Colavito
-5.413194	Colcord
-5.183101	Cold	-0.1337022
-5.413194	Cole
-5.413194	Colee
-5.413194	Colefax
-5.413194	Coleman
-5.413194	Coleridge
-5.413194	Coles
-5.413194	Coletta
-5.413194	Colfax
-5.413194	Coliseum
-5.413194	Collected
-5.413194	Collection
-5.413194	Collector
-4.860117	College	-0.3665952
-5.413194	Collegiate
-5.413194	Collett
-5.413194	Collingwood
-5.413194	Collins
-5.413194	Collinsville
-5.413194	Collyer
-5.413194	Colman
-5.413194	Colmans
-5.413194	Colmer
-5.413194	Cologne
-5.413194	Colombia
-5.413194	Colombian
-5.413194	Colonel
-5.413194	Colonial
-5.413194	Colonialism
-5.413194	Colonna
-5.413194	Colonus
-4.860117	Color	-0.1280915
-5.183101	Colorado
-5.413194	Colorama
-5.183101	Colored
-5.413194	Colorful
-5.183101	Colors	-0.1304792
-5.413194	Colosseum
-5.413194	Colossians
-5.413194	Colossus
-5.413194	Colquitt
-5.413194	Colt
-5.413194	Colts
-5.413194	Coltsman
-4.433573	Columbia	-0.3780637
-4.860117	Columbus	-0.1236115
-5.183101	Column	-0.1241703
-5.413194	Columnist
-5.413194	Columns
-5.413194	Colville
-5.413194	Colzani
-5.413194	Comanche
-5.183101	Combe	-0.1337022
-5.413194	Combellack
-5.183101	Combine
-5.413194	Combined
-5.413194	Combs
-5.183101	Come	-0.2578417
-5.413194	Comedian
-5.413194	Comedie
-5.183101	Comedy	-0.1334795
-5.413194	Comend
-5.413194	Comenico
-5.413194	Comes
-5.413194	Comet
-5.413194	Comfortably
-5.413194	Comic
-5.183101	Comics
-5.413194	Cominform
-4.860117	Coming	-0.2067108
-5.413194	Comique
-5.413194	Comiskey
-5.183101	Command
-5.413194	Commandeering
-5.413194	Commander
-5.413194	Commanders
-5.413194	Commanding
-5.413194	Commands
-5.413194	Commencing
-4.860117	Comment	-0.1260935
-5.413194	Commentaries
-5.413194	Commentary
-5.413194	Commenting
-5.413194	Comments
-5.413194	Commercants
-5.183101	Commerce	-0.1337022
-5.413194	Commercial
-5.413194	Commies
-5.413194	Commissary
-5.413194	Commission
-5.413194	Commissioner
-5.413194	Commissioners
-5.413194	Commissions
-5.413194	Committee
-5.413194	Committeeman
-5.413194	Committeemen
-5.413194	Committees
-5.413194	Commodities
-5.413194	Commodity
-5.413194	Commodore
-5.413194	Common
-5.413194	Commonly
-5.413194	Commons
-5.413194	Commonweal
-5.413194	Commonwealth
-5.413194	Commune
-5.413194	Communese
-5.413194	Communication
-5.413194	Communications
-5.413194	Communion
-5.183101	Communism	-0.129194
-5.413194	Communisn
-5.183101	Communist
-5.413194	Communistic
-5.413194	Communists
-5.413194	Community
-5.413194	Compagnie
-5.413194	Companies
-4.860117	Company	-0.1242543
-5.413194	Compaq
-5.413194	Comparable
-5.413194	Compare
-5.413194	Compared
-5.413194	Compassionately
-5.413194	Competent
-5.413194	Competition
-5.413194	Competitive
-5.413194	Competitors
-5.413194	Compeyson
-5.183101	Compilation	-0.1329194
-5.413194	Compiler
-5.413194	Complementing
-4.860117	Complete	-0.1867992
-5.183101	Completed
-5.413194	Completing
-5.413194	Completion
-5.413194	Completions
-5.183101	Complex	-0.3360374
-5.413194	Complexity
-5.413194	Complicity
-5.413194	Complying
-4.860117	Components	-0.1193217
-5.413194	Composers
-5.413194	Composite
-5.413194	Comprehensive
-5.413194	Compress
-5.413194	Compression
-5.413194	Comprised
-5.413194	Compromise
-5.413194	Compson
-5.413194	Comptroller
-5.413194	Compulsory
-5.413194	Computation
-5.413194	Compute
-5.413194	Computers
-5.413194	Computing
-5.413194	Comroe
-5.413194	Comstock
-5.413194	Comus
-5.413194	Conan
-5.413194	Conant
-5.413194	Conceding
-5.413194	Conceivably
-5.413194	Conceived
-5.413194	Concepts
-5.413194	Concern
-5.413194	Concerning
-5.413194	Concert
-5.413194	Concertante
-5.413194	Concerto
-5.413194	Concerts
-5.413194	Concessionaires
-5.413194	Concetta
-5.413194	Conchita
-5.413194	Concluding
-5.413194	Conclusions
-5.413194	Concord
-5.413194	Concordance
-5.413194	Concorde
-5.413194	Concrete
-5.413194	Condensation
-5.413194	Condition
-5.413194	Conditions
-5.413194	Condliffe
-5.413194	Conduct
-5.183101	Conductor	-0.1998853
-5.413194	Conduit
-5.413194	Conestoga
-4.284627	Coney	-0.206809
-5.413194	Confabulation
-5.413194	Confederacy
-5.413194	Confederate
-5.413194	Confederates
-5.413194	Confederation
-5.413194	Conference
-5.413194	Conferences
-5.413194	Confession
-5.413194	Confessions
-5.413194	Confidence
-5.183101	Conflict	-0.1295379
-5.413194	Confrontation
-5.413194	Confronted
-5.413194	Confucian
-5.413194	Confucianism
-5.413194	Confucius
-5.183101	Confused	-0.2485066
-5.183101	Confusion	-0.1336991
-5.413194	Confuted
-5.413194	Cong
-5.413194	Congdon
-5.413194	Congo
-5.413194	Congolese
-5.183101	Congratulations	-0.127756
-5.413194	Congregation
-5.413194	Congregational
-5.413194	Congregationalism
-5.413194	Congregationalist
-5.413194	Congregationalists
-5.413194	Congress
-5.413194	Congresses
-5.413194	Congressional
-5.413194	Congressman
-5.413194	Congressmen
-5.413194	Congresswoman
-5.413194	Coniston
-5.413194	Conlow
-5.413194	Connall
-5.413194	Connally
-5.413194	Conneaut
-5.413194	Connecticut
-4.860117	Connection	-0.1326205
-5.413194	Connections
-5.413194	Connell
-5.413194	Connelly
-5.413194	Connie
-5.413194	Connor
-5.413194	Conoco
-5.413194	Conquering
-5.413194	Conquest
-5.413194	Conquete
-5.413194	Conrac
-5.413194	Conrad
-5.413194	Conscience
-5.413194	Consciousness
-5.413194	Conseil
-5.413194	Consent
-5.413194	Consequently
-5.413194	Conserv
-5.413194	Conservation
-5.413194	Conservatism
-5.183101	Conservative
-5.413194	Conservatory
-5.183101	Consider	-0.1271789
-5.413194	Considerable
-5.413194	Considered
-5.413194	Considering
-5.413194	Consitutional
-5.413194	Consolidated
-5.413194	Consonantal
-5.413194	Consort
-5.413194	Constable
-5.413194	Constance
-5.183101	Constant
-5.413194	Constantin
-5.413194	Constantine
-5.413194	Constantino
-5.413194	Constantinople
-5.413194	Constantinos
-5.413194	Constitution
-5.413194	Constitutional
-5.413194	Constitutions
-5.413194	Construct
-5.183101	Construction	-0.3446802
-5.413194	Consul
-5.413194	Consultant
-5.413194	Consultants
-5.413194	Consultation
-5.413194	Consulting
-5.413194	Consumer
-5.183101	Contact	-0.1320491
-5.413194	Contacts
-5.413194	Containment
-5.413194	Contemplating
-5.413194	Contemporary
-5.413194	Contempory
-5.413194	Contempt
-5.413194	Content
-5.413194	Contest
-4.012553	Context	-0.6941465
-5.413194	Continent
-5.413194	Continental
-5.413194	Continuation
-5.413194	Continue
-5.413194	Continuing
-5.413194	Continuity
-5.183101	Continuous	-0.1326927
-5.413194	Continuum
-5.183101	Contract	-0.1334664
-5.413194	Contraction
-5.413194	Contradictions
-5.413194	Contrarily
-5.413194	Contrary
-5.413194	Contrast
-5.413194	Contribute
-5.413194	Contribution
-5.413194	Contributions
-4.860117	Control	-0.1238497
-5.413194	Controller
-5.183101	Controls	-0.1241703
-5.413194	Convair
-5.413194	Convenience
-5.183101	Convention	-0.1241703
-5.413194	Conventional
-5.413194	Conversely
-5.413194	Conversion
-5.413194	Convertible
-5.413194	Converts
-5.413194	Conveyance
-5.413194	Convinced
-5.413194	Convocation
-5.413194	Convocations
-5.413194	Convulsively
-5.413194	Conway
-5.413194	Cooch
-5.413194	Cook
-5.413194	Cooke
-5.413194	Cooked
-4.860117	Cool	-0.1336634
-5.413194	Coolers
-5.413194	Coolest
-5.413194	Coolidge
-5.413194	Coolidges
-5.413194	Cooling
-5.413194	Coombs
-5.413194	Coons
-5.413194	Cooper
-5.413194	Cooperation
-5.413194	Cooperative
-5.413194	Cooperatives
-5.413194	Cooperman
-5.413194	Coopers
-5.413194	Coordination
-5.413194	Coosa
-4.860117	Cop	-0.1890732
-5.413194	Copeland
-5.413194	Copenhagen
-5.413194	Copernican
-5.413194	Copernicus
-5.413194	Copies
-5.413194	Coping
-5.413194	Copland
-5.413194	Copley
-5.413194	Copp
-5.413194	Copper
-5.413194	Coral
-5.413194	Corault
-5.413194	Corazon
-5.413194	Corbin
-5.413194	Corcoran
-5.413194	Corder
-5.413194	Cordoba
-5.183101	Core	-0.1241703
-5.413194	Corelli
-5.413194	Corinth
-5.413194	Corinthian
-5.413194	Corinthians
-5.413194	Coriolanus
-5.413194	Corn
-5.413194	Corne
-5.413194	Corneilus
-4.860117	Cornell	-0.1336563
-5.413194	Corner
-5.413194	Corning
-5.413194	Cornwall
-5.413194	Cornwallis
-5.413194	Corollary
-5.413194	Coronado
-5.413194	Coronation
-5.413194	Coroner
-5.413194	Corp
-5.413194	Corp.
-5.413194	Corporal
-5.413194	Corporate
-5.413194	Corporation
-5.413194	Corporations
-5.183101	Corps	-0.1330076
-5.413194	Corpus
-5.413194	Correct
-5.413194	Correction
-5.413194	Corrections
-5.413194	Correggio
-5.413194	Correlations
-5.413194	Correlatively
-5.413194	Correspondence
-5.413194	Corrette
-5.413194	Corrientes
-5.413194	Corroborating
-5.413194	Corruption
-5.413194	Corsi
-5.413194	Corsia
-5.413194	Corso
-5.413194	Cortlandt
-5.183101	Cos	-0.1335581
-5.413194	Cosmo
-5.413194	Cosmology
-5.413194	Cossack
-5.413194	Cossacks
-5.413194	Cost
-5.413194	Costaggini
-5.413194	Costs
-5.413194	Cotillion
-5.413194	Cotman
-5.413194	Cott
-5.413194	Cotten
-4.662069	Cotton	-0.129194
-5.413194	Cotty
-5.413194	Coughlin
-4.860117	Could	-0.4862233
-5.413194	Coulomb
-5.413194	Coulson
-5.413194	Council
-5.413194	Councilman
-5.413194	Councils
-5.413194	Councilwoman
-5.413194	Counsel
-5.413194	Counseling
-5.413194	Count
-5.413194	Counties
-5.413194	Countries
-5.413194	Country
-5.413194	Countrymen
-5.413194	County
-5.413194	Coupal
-5.413194	Couperin
-5.413194	Couple
-5.413194	Coupling
-5.413194	Courbet
-5.413194	Courcy
-5.413194	Courier
-5.413194	Course
-5.413194	Courses
-4.662069	Court	-0.2430298
-5.413194	Courtenay
-5.413194	Courtier
-5.413194	Courtney
-5.413194	Courtrai
-5.413194	Courts
-5.413194	Cousin
-5.413194	Couturier
-5.413194	Couve
-5.413194	Cove
-5.413194	Covent
-5.413194	Coventry
-5.413194	Cover
-5.413194	Coverage
-5.413194	Covington
-5.413194	Cow
-5.413194	Coward
-5.413194	Cowbird
-5.413194	Cowessett
-5.413194	Cowley
-5.413194	Cowrtiers
-5.413194	Cows
-5.413194	Cox
-5.413194	Coyotes
-5.413194	Cozen
-5.413194	Cr
-5.413194	Craddock
-5.413194	Cradle
-5.413194	Craft
-4.860117	Craig
-5.413194	Cramer
-5.413194	Crane
-5.413194	Cranes
-5.413194	Cranston
-5.413194	Craven
-5.413194	Crawford
-4.433573	Crazy	-0.2306455
-5.413194	Creamery
-4.662069	Create	-0.1284346
-5.413194	Creations
-4.860117	Creative	-0.1336991
-5.413194	Creator
-5.183101	Credit
-5.413194	Credo
-5.413194	Creed
-5.183101	Creek	-0.129194
-5.413194	Creepers
-5.413194	Creighton
-5.413194	Creole
-5.413194	Creon
-5.413194	Crescent
-5.413194	Creston
-5.413194	Cretaceous
-5.413194	Cricket
-5.413194	Cried
-5.183101	Crime
-5.413194	Crimea
-5.413194	Crimean
-5.413194	Crimes
-5.183101	Criminal	-0.1337022
-5.413194	Criminals
-5.413194	Crip
-5.413194	Crippled
-5.413194	Cris
-5.413194	Crisis
-5.413194	Crispin
-5.413194	Cristo
-5.413194	Criterion
-5.413194	Critic
-5.183101	Critical	-0.2485001
-5.413194	Criticality
-5.413194	Critically
-5.413194	Criticism
-5.413194	Crittenden
-5.413194	Crockett
-5.413194	Croix
-5.413194	Crombie
-5.413194	Cromwell
-5.413194	Cromwellian
-5.413194	Crooked
-5.413194	Crosby
-5.413194	Crosbys
-5.183101	Cross	-0.1337022
-5.413194	Crossing
-5.413194	Crossman
-5.413194	Crosson
-5.413194	Crouch
-5.413194	Crow
-5.413194	Crowd
-5.413194	Crowder
-5.413194	Crowds
-5.183101	Crown	-0.1336956
-5.413194	Crows
-5.413194	Croydon
-5.413194	Crozier
-5.413194	Crucial
-5.413194	Crucible
-5.413194	Cruel
-5.183101	Cruise	-0.1242275
-5.413194	Crumb
-5.413194	Crumble
-5.413194	Crumley
-5.413194	Crumlish
-5.413194	Crump
-5.413194	Crunch
-5.413194	Crus
-5.413194	Crusade
-5.413194	Crusaders
-5.413194	Crusades
-5.413194	Crush
-5.413194	Cruz
-5.413194	Cryptic
-5.183101	Crystal
-5.413194	Crystallographic
-5.413194	Crystallography
-5.413194	Cuba
-5.183101	Cuban
-5.413194	Cubans
-5.413194	Cubism
-5.413194	Cubist
-5.413194	Cubs
-5.413194	Cuddleback
-5.413194	Cudkowicz
-5.413194	Cudmore
-5.413194	Culbertson
-5.413194	Culmone
-5.413194	Cultural
-5.413194	Culturally
-5.413194	Culture
-5.413194	Cultures
-5.413194	Culver
-5.413194	Culvers
-5.413194	Cumbancheros
-5.413194	Cumberland
-5.413194	Cumhuriyet
-5.413194	Cumulative
-5.413194	Cunard
-5.413194	Cunningham
-5.413194	Cup
-5.413194	Cupply
-5.413194	Curia
-5.413194	Curiae
-5.413194	Curie
-4.662069	Curious	-0.1336825
-5.183101	Curiously	-0.1337022
-5.413194	Curling
-5.413194	Curly
-5.413194	Currency
-4.662069	Current	-0.1334016
-5.183101	Currently	-0.1334729
-5.413194	Curry
-5.413194	Currys
-5.413194	Cursed
-5.413194	Cursing
-5.413194	Curt
-5.413194	Curtain
-5.413194	Curtin
-5.183101	Curtis	-0.1259802
-5.413194	Curtiss
-5.413194	Cury
-5.413194	Curzon
-5.413194	Cusa
-5.413194	Cushman
-5.413194	Custer
-4.860117	Custom
-5.413194	Customary
-5.183101	Customer	-0.1200085
-5.413194	Customers
-5.413194	Customhouse
-5.413194	Customs
-4.860117	Cut	-0.1753178
-5.183101	Cutting	-0.1289888
-5.413194	Cyclades
-5.413194	Cycly
-5.413194	Cygne
-5.413194	Cylinder
-5.413194	Cynewulf
-5.413194	Cynical
-5.413194	Cynthia
-5.413194	Cypress
-5.413194	Cyprian
-5.413194	Cyr
-5.413194	Cyril
-5.413194	Cyrus
-5.413194	Czar
-5.413194	Czarina
-5.413194	Czarship
-5.413194	Czechoslovakia
-5.413194	Czerny
-4.433573	D	-0.1275377
-4.860117	D.C.
-5.413194	D8
-5.413194	DA
-5.413194	DC
-5.413194	DEAE
-5.413194	DES
-5.413194	DESKPRO
-5.413194	DETAILS
-5.413194	DIOCS
-5.413194	DIVIDEND
-5.413194	DIW
-5.413194	DLINE
-5.413194	DPW
-5.413194	DRDW
-5.413194	DSM
-5.413194	DSW
-5.413194	DTF
-5.413194	DU
-5.413194	DUF
-4.433573	Da
-5.413194	Dachshund
-5.413194	Dactyls
-4.284627	Dad	-0.1083308
-5.413194	Dadaism
-4.433573	Daddy	-0.279334
-5.413194	Dade
-5.413194	Daer
-5.413194	Dag
-5.413194	Dailey
-4.662069	Daily	-0.2475652
-5.413194	Dairy
-5.413194	Dakota
-5.183101	Dale	-0.1250528
-5.413194	Daley
-5.413194	Dali
-5.413194	Dallas
-5.413194	Dalles
-5.413194	Dalloway
-5.413194	Dalton
-5.183101	Daly	-0.1334074
-5.413194	Damas
-5.413194	Damascus
-5.413194	Dame
-5.413194	Dammit
-5.183101	Damn	-0.1301852
-5.183101	Damned
-5.413194	Damon
-5.183101	Damp	-0.1336956
-5.413194	Dams
-5.183101	Dan	-0.1326205
-5.413194	Dana
-5.413194	Danaher
-5.413194	Danbury
-5.413194	Dance
-5.413194	Dancers
-5.413194	Dances
-5.413194	Danchin
-5.413194	Dancing
-5.413194	Dandy
-5.413194	Dane
-5.413194	Danehy
-5.413194	Danes
-5.413194	Danger
-5.413194	Dangerous
-5.413194	Dangling
-5.413194	Daniel
-5.413194	Daniels
-5.413194	Danish
-5.413194	Dannehower
-5.413194	Danny
-5.413194	Dante
-5.413194	Danube
-5.413194	Danubian
-5.413194	Danville
-5.413194	Danzig
-5.413194	Daphne
-5.413194	Dappertutto
-5.413194	Dares
-5.413194	Darius
-4.662069	Dark	-0.1245887
-5.413194	Darkling
-5.413194	Darlene
-5.413194	Darling
-5.413194	Darlington
-5.413194	Darn
-5.413194	Darnell
-5.413194	Darrell
-5.413194	Darrow
-4.860117	Dartmouth	-0.1301852
-5.413194	Darwen
-5.183101	Darwin	-0.1259802
-5.413194	Darwinism
-5.413194	Das
-5.413194	Dash
-5.413194	Dashiell
-5.413194	Dashwood
-4.662069	Data	-0.133411
-4.662069	Date	-0.2399948
-5.413194	Datron
-5.183101	Daughter	-0.1333062
-5.413194	Dauntless
-5.413194	Dauphine
-5.413194	Davao
-4.662069	Dave
-5.413194	Davenport
-3.895165	David	-0.1627292
-5.413194	Davidson
-5.413194	Davis
-4.284627	Davy	-0.1336563
-5.413194	Dawn
-5.413194	Dawson
-4.662069	Day	-0.2350216
-4.860117	Days	-0.1208013
-5.413194	Daytime
-5.413194	Dazed
-5.183101	De
-5.413194	DeCicco
-5.413194	DeForest
-5.413194	DeGroot
-5.413194	DeHaviland
-5.183101	DeKalb
-5.413194	DeMontez
-5.413194	DePaul
-5.413194	DePugh
-5.413194	DeSoto
-5.413194	DeWitt
-5.413194	Deacon
-5.413194	Deacons
-5.413194	Deactivation
-5.183101	Dead
-5.413194	Deadlock
-5.413194	Deadly
-5.413194	Deadwood
-4.860117	Deaf	-0.4621578
-5.413194	Deal
-5.183101	Dealer
-5.413194	Dealers
-5.413194	Dealing
-5.413194	Dean
-5.413194	Deane
-5.413194	Deans
-5.413194	Dear
-5.413194	Dearborn
-5.413194	Dearie
-5.413194	Dearly
-4.662069	Death	-0.1696788
-5.413194	Deauville
-5.413194	Debate
-5.413194	Debating
-5.413194	Debonnie
-5.413194	Debora
-5.413194	Debts
-5.413194	Debutante
-5.413194	Decanting
-5.413194	Decathlon
-5.413194	Decatur
-5.413194	Decay
-5.413194	Decca
-5.413194	December
-5.413194	Decide
-5.413194	Deciding
-5.413194	Decision
-5.413194	Decisions
-5.413194	Deck
-5.413194	Declaration
-5.413194	Declarative
-5.413194	Declinations
-5.413194	Decorated
-5.413194	Decorating
-5.413194	Decorators
-5.413194	Decries
-5.413194	Dedication
-5.413194	Deductible
-5.413194	Deduction
-5.413194	Deegan
-5.413194	Deemed
-4.860117	Deep	-0.1335814
-5.413194	Deer
-5.413194	Deerstalker
-5.183101	Defeat	-0.1311741
-5.413194	Defence
-5.413194	Defends
-5.183101	Defense
-5.413194	Define
-5.413194	Defining
-5.413194	Definite
-5.183101	Definition	-0.1336694
-5.413194	Defoe
-5.413194	Defrost
-5.413194	Degas
-5.413194	Dei
-5.413194	Deity
-5.413194	Del
-5.413194	Delahanty
-5.413194	Delancy
-5.413194	Delaney
-5.413194	Delano
-5.183101	Delaware	-0.1244282
-5.413194	Delawares
-5.413194	Delegates
-5.413194	Delhi
-5.413194	Delia
-5.413194	Deliberately
-5.413194	Delinquency
-5.413194	Delivery
-5.413194	Della
-5.413194	Deller
-5.413194	Dells
-5.413194	Dellwood
-5.413194	Delmore
-5.413194	Delon
-5.413194	Deloris
-5.413194	Delphi
-5.413194	Delphine
-5.413194	Delray
-5.413194	Delta
-5.413194	Deluxe
-5.413194	Delvin
-5.413194	Demagogues
-5.413194	Demand
-5.413194	Demanded
-5.413194	Demands
-5.413194	Demetrius
-5.413194	Democracy
-5.183101	Democrat	-0.127756
-5.183101	Democratic
-5.413194	Democratique
-5.413194	Democrats
-5.413194	Demodocus
-5.413194	Demographie
-5.413194	Demon
-5.413194	Demons
-5.413194	Demonstrating
-5.413194	Demonstrations
-5.413194	Denials
-5.413194	Denmark
-5.413194	Dennis
-5.413194	Denny
-5.413194	Denouncing
-5.413194	Densmore
-5.413194	Dent
-5.413194	Denton
-5.183101	Denver
-5.413194	Denverite
-5.413194	Deor
-5.183101	Department	-0.1280878
-5.413194	Dependent
-5.413194	Depending
-5.413194	Depew
-5.413194	Depicted
-5.413194	Deportees
-5.183101	Depot	-0.127756
-5.413194	Deppy
-5.413194	Depression
-5.413194	Deputy
-5.413194	Dequindre
-5.413194	Derails
-5.413194	Derby
-5.413194	Dervish
-5.413194	Des
-5.413194	Descartes
-5.413194	Descent
-5.413194	Description
-5.413194	Descriptive
-5.413194	Desegregation
-5.413194	Desert
-4.662069	Design	-0.1336599
-5.413194	Designed
-5.413194	Designers
-5.183101	Designs
-5.413194	Desiring
-5.413194	Deslonde
-5.413194	Desmond
-5.413194	Desolation
-5.413194	Desperately
-5.413194	Despina
-5.413194	Despising
-5.183101	Despite	-0.1281143
-5.413194	Desprez
-5.413194	Destroyer
-5.413194	Destruction
-5.413194	Detached
-5.413194	Detail
-5.183101	Detailed	-0.1336956
-5.413194	Detective
-5.413194	Detectives
-5.413194	Detente
-5.413194	Detention
-5.413194	Detergent
-5.413194	Deterioration
-5.413194	Determine
-5.413194	Deterrent
-5.413194	Detroit
-5.413194	Deus
-5.413194	Deutsch
-5.413194	Deutsche
-5.413194	Develop
-5.413194	Developed
-5.413194	Developing
-5.183101	Development	-0.1336991
-5.413194	Developments
-5.413194	Devens
-5.413194	Dever
-5.413194	Devery
-5.413194	Devey
-4.860117	Devil	-0.1248628
-5.413194	Devol
-5.413194	Devonshire
-5.413194	Devoted
-5.413194	Devout
-5.413194	Dewey
-5.413194	Dexedrine
-5.413194	Dexter
-5.413194	Dey
-5.413194	Dharma
-5.413194	Di
-5.413194	DiGiorgio
-5.413194	DiLuzio
-5.413194	DiMaggio
-5.413194	DiSimone
-5.413194	DiVarco
-5.413194	Diaghileff
-5.413194	Diagnoses
-5.413194	Diagnosis
-5.413194	Dialogues
-5.413194	Diametric
-5.183101	Diana	-0.1336991
-5.413194	Diane
-5.413194	Diario
-5.183101	Diary	-0.1280878
-5.413194	Diaz
-5.413194	Dice
-5.413194	Dick
-5.413194	Dicke
-5.413194	Dickens
-5.413194	Dickey
-5.183101	Dickinson
-5.413194	Dicks
-5.413194	Dickson
-5.413194	Dictator
-5.413194	Dictionaries
-5.413194	Dictionary
-5.183101	Did	-0.9234245
-5.413194	Didi
-5.183101	Die	-0.1337022
-5.413194	Diego
-5.413194	Diem
-5.413194	Dienbienphu
-5.183101	Dies	-0.1289888
-4.433573	Diet	-0.1337022
-5.413194	Dietary
-5.413194	Dietetic
-5.413194	Diethylstilbestrol
-5.413194	Dietrich
-5.413194	Diets
-5.413194	Diety
-5.413194	Dieu
-5.413194	Dieux
-5.413194	Differences
-5.183101	Different
-5.413194	Differential
-5.183101	Difficult	-0.1275738
-5.413194	Diffring
-5.413194	Dig
-5.413194	Digby
-4.860117	Digest
-5.413194	Digges
-5.413194	Dignity
-5.413194	Dijon
-5.413194	Dill
-5.413194	Dillinger
-5.413194	Dillon
-5.413194	Dilthey
-5.413194	Dilworth
-5.413194	Dilys
-5.413194	Dimaggio
-5.413194	Diman
-5.413194	Dimensions
-5.413194	Dimes
-5.183101	Dimitri	-0.1332436
-5.413194	Dimly
-5.413194	Dineen
-5.413194	Dinh
-5.413194	Dining
-5.413194	Dinner
-5.413194	Dinsmore
-5.413194	Diocesan
-5.413194	Diodati
-5.413194	Dion
-5.413194	Dionie
-5.413194	Dionigi
-5.413194	Dionysian
-5.413194	Dionysus
-5.413194	Dior
-5.413194	Dip
-5.413194	Diplomatic
-5.413194	Diplomats
-5.413194	Dipylon
-4.860117	Direct	-0.1336236
-5.413194	Directed
-5.413194	Direction
-5.413194	Directionality
-5.413194	Directions
-5.413194	Directly
-5.183101	Director
-5.183101	Directors	-0.2061013
-4.860117	Directory	-0.1241138
-5.413194	Dirion
-5.413194	Dirksen
-5.413194	Diron
-5.183101	Dirt	-0.1331322
-5.183101	Dirty	-0.1337022
-5.413194	Disadvantages
-5.413194	Disaffiliation
-5.413194	Disagreement
-5.413194	Disapproval
-5.413194	Disarmament
-5.413194	Disciplinary
-5.413194	Discontinue
-5.413194	Discounts
-5.413194	Discours
-5.413194	Discourse
-5.413194	Discoveries
-5.413194	Discovering
-5.413194	Discovery
-5.413194	Discreet
-5.413194	Discussed
-5.413194	Discussion
-5.413194	Discussions
-5.413194	Diseases
-5.413194	Dish
-5.413194	Dismounting
-5.413194	Disneyland
-5.413194	Displacement
-4.284627	Display	-0.1177009
-5.183101	Displayed	-0.1288962
-5.413194	Displaying
-5.413194	Disputes
-5.413194	Disquisition
-5.413194	Dissect
-5.413194	Dissenting
-5.413194	Distally
-5.413194	Distances
-5.413194	Distilled
-5.413194	Distillers
-5.413194	Distinguished
-5.413194	Distribution
-5.413194	Distributive
-5.413194	Distributors
-5.413194	District
-5.413194	Districts
-5.413194	Ditch
-5.413194	Ditmar
-4.860117	Ditmars	-0.2399948
-5.413194	Divergent
-5.413194	Diversification
-5.413194	Diversified
-5.413194	Diversity
-5.413194	Divertimento
-5.413194	Dives
-5.413194	Divide
-5.413194	Divided
-4.860117	Divine	-0.1336927
-5.413194	Diving
-5.413194	Divinity
-5.413194	Division
-5.183101	Dixie
-5.413194	Dixiecrats
-5.413194	Dixieland
-5.413194	Dixon
-5.413194	Dizzy
-5.413194	Djakarta
-5.413194	Django
-5.413194	Djangology
-5.413194	Dlrs
-5.413194	Dnieper
-4.433573	Do	-1.037787
-5.413194	Doaty
-5.413194	Dobbins
-5.413194	Dobbs
-5.413194	Doberman
-5.183101	Doc
-5.413194	Docherty
-4.860117	Doctor	-0.127756
-5.413194	Doctors
-5.413194	Doctrine
-5.413194	Documents
-5.413194	Dodd
-5.413194	Dodge
-5.413194	Dodger
-5.413194	Dodgers
-5.413194	Dodington
-5.413194	Doe
-4.433573	Does	-0.4244418
-4.860117	Dog	-0.1336628
-5.413194	Dogberry
-5.183101	Dogs
-5.413194	Dogtown
-5.413194	Dogumenti
-5.413194	Dohnanyi
-5.413194	Dolan
-5.413194	Dolce
-5.413194	Dollar
-5.413194	Dolley
-5.183101	Dolly
-5.413194	Dolmabahce
-5.413194	Dolores
-5.413194	Dolphins
-5.413194	Domesday
-5.183101	Domestic	-0.1337022
-5.413194	Domicilium
-5.413194	Domina
-5.413194	Dominant
-5.413194	Dominated
-5.413194	Dominic
-4.662069	Dominican	-0.1337022
-5.413194	Dominion
-5.413194	Dominique
-5.413194	Domokous
-5.413194	Don
-4.662069	Donald
-5.413194	Donaldson
-5.413194	Donato
-4.860117	Done	-0.1235981
-5.183101	Donna	-0.133689
-5.413194	Donnay
-5.413194	Donnell
-5.413194	Donnelly
-5.413194	Donner
-5.413194	Donnybrook
-5.413194	Donovan
-5.413194	Dookiyoon
-5.413194	Dooley
-5.413194	Dooleys
-5.413194	Doolin
-5.413194	Doolittle
-4.860117	Doors	-0.1330273
-5.413194	Doppler
-5.413194	Dora
-5.413194	Dorado
-5.413194	Doran
-5.413194	Dorcas
-5.413194	Dorens
-5.413194	Dorenzo
-5.413194	Doria
-5.413194	Doric
-5.413194	Doris
-5.183101	Dorothy
-5.413194	Dorr
-5.413194	Dorset
-5.413194	Dorsey
-5.413194	Dos
